</s> 0.068696 -0.022582 -0.12283 -0.017175 -0.024914 -0.044861 -0.081879 0.20312 -0.049682 0.096687 0.016905 0.12718 0.27007 0.26153 0.0048948 -0.10862 -0.16712 0.072439 0.069608 -0.25529 -0.13323 -0.019014 0.02788 -0.20062 0.067826 0.013143 0.057573 -0.16678 -0.045294 0.23059 -0.27004 0.0086322 0.070773 0.19737 0.044605 0.053851 0.031999 0.099459 -0.08394 0.19261 -0.0081395 0.15013 0.076671 0.24422 0.016624 -0.043801 -0.05148 -0.080555 0.089953 -0.15529 0.061259 0.12994 -0.022112 0.11548 0.041351 -0.076505 0.0090199 0.048908 0.18972 0.037052 0.0018212 0.1345 0.059288 -0.13132 -0.037682 -0.059168 -0.061346 -0.090845 0.054161 -0.028508 -0.0051154 0.030244 -0.02419 0.092014 0.078711 -0.091123 0.11844 0.054324 0.075322 -0.034971 -0.0081072 -0.04859 0.10944 -0.12479 0.0074149 0.076691 0.002699 0.10855 -0.050068 -0.0155 0.081203 -0.049528 -0.03837 -0.14363 -0.084274 -0.060326 -0.047968 0.08234 -0.063184 -0.085584 0.042602 0.09591 0.010726 -0.00457 0.09952 -0.025885 -0.057882 0.03938 -0.015386 -0.0031147 0.072867 -0.067476 -0.063482 0.067957 0.011394 0.083993 -0.10215 -0.019231 -0.091145 -0.043177 -0.046104 0.053359 0.05084 0.11398 -0.074801 -0.066463 -0.11345 -0.049831 0.032673 -0.038288 0.088702 -0.034532 -0.016319 -0.12814 -0.056563 0.018402 -0.0040831 -0.028324 -0.077915 -0.0032926 -0.11277 -0.040454 -0.062276 0.25885 0.045893 -0.029925 0.11211 0.1147 -0.090789 -0.043188 -0.11335 -0.045665 0.10161 -0.00094812 -0.015714 -0.14999 -0.072989 -0.033768 0.032335 -0.088864 0.12901 -0.015749 0.026002 0.087848 0.076325 0.11988 -0.016264 0.064868 -0.15493 0.035486 -0.043666 0.14731 0.16898 -0.011673 0.05846 -0.075569 0.054794 0.10153 0.086596 0.11536 -0.0070559 -0.046542 0.092059 -0.013253 -0.082965 0.042394 -0.035917 -0.10816 -0.013572 -0.0045042 0.0085232 0.061281 0.10682 0.034948 -0.052436 -0.1378 -0.079237 0.043631 0.034095 -0.046412 0.19663 0.088157 -0.051789 -0.1629 0.066009 0.097934 -0.056587 -0.10966 0.048221 0.026317 -0.22986 -0.015693 0.0073315 0.0042278 -0.037652 -0.037758 -0.097557 0.014017 0.07826 0.093994 -0.078963 -0.05862 -0.16873 0.055202 -0.060135 -0.021597 0.031772 -0.044644 0.015114 0.074967 0.0099854 0.16964 -0.063034 0.031575 -0.074141 -0.061019 -0.10087 0.037329 0.066102 0.10594 -0.18034 -0.0030276 0.17415 -0.084479 0.036362 -0.17696 0.03968 -0.029327 0.2443 0.13064 -0.056575 -0.072071 -0.15144 -0.16904 -0.052202 -0.00018465 -0.021701 -0.1223 0.00986 -0.030577 0.09627 0.04989 0.10451 0.092334 0.065874 -0.18229 -0.11281 -0.027365 -0.091708 0.10576 -0.13309 0.27047 0.23603 -0.092752 -0.18028 0.18707 0.1422 -0.16314 0.25486 -0.038455 0.092286 0.097894 -0.074167 -0.09913 0.024457 -0.14811 0.085727 0.35567 0.069748 -0.00024963 -0.18493 -0.028746 0.19249 -0.080783 0.070278 -0.19841 -0.022474 0.07294 -0.067268 0.1139 
<eou> 0.041461 0.029338 -0.12234 -0.025268 0.064573 0.028709 -0.065904 0.26623 -0.049116 0.090422 -0.064925 0.12194 0.16701 0.14059 0.064769 -0.035449 -0.071716 0.067407 -0.020895 -0.10521 -0.025824 -0.028184 0.046364 -0.2886 0.056566 0.051003 0.16053 -0.16467 -0.071458 0.31831 -0.18957 0.076588 0.040487 0.21918 0.063025 0.006932 -0.00090114 0.16382 -0.10845 0.14307 0.0051272 0.10192 0.059981 0.17405 0.036518 -0.11533 -0.048996 -0.11875 0.10558 -0.10531 0.02465 0.2356 -0.024803 0.14906 0.045765 -0.051025 -0.024685 -0.017782 0.19134 0.071721 -0.017629 0.16305 -0.018999 -0.10515 -0.032054 0.016458 -0.0059488 0.071041 -0.046214 -0.051755 0.090883 0.17606 -0.093561 0.13823 -0.10335 0.048099 0.13197 0.14228 0.020966 -0.067975 0.080247 -0.05454 0.063787 -0.041964 0.092416 0.12933 -0.065272 0.13903 -0.0010453 -0.090996 -0.074616 -0.075953 -0.055412 0.0017443 -0.053324 -0.030522 -0.095825 -0.015972 -0.19233 -0.19911 0.20781 0.085752 -0.032696 0.048855 -0.036432 -0.020289 -0.048409 -0.096723 -0.06238 -0.072377 -0.038747 -0.034852 -0.056529 0.11661 0.014773 0.028206 -0.14051 0.027997 -0.037645 -0.012145 0.03365 0.068801 0.10578 0.019271 -0.057334 -0.16211 -0.086798 -0.071454 0.061315 -0.067053 0.0035732 -0.050899 0.057762 -0.050806 -0.093246 0.015755 0.017892 -0.10845 0.0029668 0.059153 -0.15803 -0.063111 -0.06501 0.27415 0.031712 -0.039279 0.15092 0.0054636 -0.087863 -0.011424 -0.14304 0.082949 0.092986 -0.0051289 -0.051259 -0.14131 -0.011999 -0.053615 -0.043259 -0.098041 0.10047 -0.035426 0.026458 0.15285 0.10972 0.035354 0.00039895 -0.021456 -0.088367 0.030196 -0.021474 0.087741 -0.011942 0.085857 0.11478 -0.16074 0.035442 0.10497 0.078498 0.1404 0.014128 -0.026913 0.11643 -0.020644 -0.15087 -0.019612 -0.070344 0.015955 -0.019094 -0.06149 0.041947 0.096902 0.012697 0.018717 -0.038323 -0.12724 -0.066973 0.023477 0.032502 -0.11285 0.30632 -0.0042286 0.083908 -0.10315 0.06606 0.058403 -0.005307 -0.04508 0.11661 0.00072468 -0.14664 -0.040446 -0.076657 0.029655 -0.068094 0.03384 -0.1061 0.084156 0.17387 0.029886 -0.010301 -0.089815 -0.10215 0.11275 -0.040551 -0.049712 0.096232 0.096408 0.012873 0.096179 -0.00028437 0.14176 -0.0026536 0.025152 -0.11127 0.022824 -0.044134 -0.00099805 0.088059 0.059801 -0.19848 0.12331 -0.0065325 -0.038018 0.08784 -0.20278 0.19956 0.0080734 0.13188 0.094669 -0.13714 0.039194 -0.13991 -0.06696 -0.11254 0.036761 0.04148 -0.013494 0.075127 -0.036789 0.013686 0.035147 0.07579 0.069985 0.14607 -0.20069 -0.12514 -0.035593 -0.035707 0.11723 -0.06968 0.26821 0.20637 -0.085116 -0.17051 0.13762 0.028604 -0.061031 0.054616 -0.085117 0.14936 -0.028192 -0.077615 0.044375 -0.03445 -0.098349 0.12613 0.26545 0.020202 -0.028703 -0.13166 -0.017777 0.11607 0.014851 -0.035304 -0.27322 0.0046026 0.14583 -0.15115 0.11958 
the -0.074981 0.03737 0.0077629 0.0055924 0.15029 -0.011829 -0.16865 0.21602 -0.02556 0.16976 -0.064258 0.095546 0.099241 0.22333 0.084195 0.025115 -0.029358 0.19723 0.022025 -0.018202 -0.042911 -0.14005 -0.0039144 -0.21771 0.071869 0.17525 0.076553 -0.24278 -0.03146 0.3531 -0.13995 0.17209 -0.041983 0.1507 0.065139 -0.060975 0.047584 0.10443 -0.14245 0.17635 -0.12625 0.14525 0.0074285 0.15645 -0.098079 -0.15262 -0.12144 -0.069383 0.049464 -0.1257 0.069906 0.19746 0.027739 0.018264 0.096923 0.024877 0.078609 -0.11006 0.17935 0.0051499 -0.075316 0.018216 0.012069 -0.13926 -0.0050619 -0.062905 0.038035 0.17883 -0.0023858 -0.14551 0.11166 0.25364 -0.2394 0.12782 -0.23734 0.08856 0.25137 0.10663 0.01622 -0.054393 0.15324 0.0020507 0.054741 -0.062846 0.0054061 0.091411 -0.018367 0.27307 -0.095007 0.034816 -0.15049 -0.13462 0.026422 -0.013559 -0.11604 0.058553 -0.086884 0.02778 -0.22222 -0.1663 0.12178 -0.0020371 0.1053 -0.084839 -0.12153 -0.14722 0.084242 0.17582 -0.046015 0.022721 -0.010959 0.018711 -0.090548 -0.063517 0.0044288 -0.17131 -0.041714 0.046328 -0.088248 0.034073 0.11789 -0.10385 0.038058 -0.011539 0.011121 -0.16 0.0033194 0.063943 -0.071657 -0.1663 -0.080438 -0.020931 -0.059533 -0.018859 -0.066305 -0.016796 -0.047989 -0.012599 0.057616 0.079911 0.023955 -0.18662 -0.0085053 0.19951 0.040044 0.029395 0.077453 0.123 0.17972 0.0070412 0.023089 0.01653 0.060122 -0.007701 0.086221 -0.034143 0.10718 0.0035677 0.014259 -0.014672 0.079898 -0.042782 0.0096963 0.017627 0.12481 -0.057165 -0.008011 0.10034 -0.16244 0.11349 -0.07983 0.0040708 -0.0037116 -0.021684 0.052941 0.00045678 -0.065817 0.23587 0.0036351 0.12397 0.10708 -0.070488 0.023846 0.0079667 -0.07896 -0.05948 -0.028021 -0.11518 -0.055351 -0.12712 0.14531 -0.047689 -0.04753 0.061424 -0.098409 -0.12958 -0.055382 -0.1084 0.073733 -0.073739 0.15874 0.065146 0.13696 -0.23978 0.1485 -0.1088 0.0037513 0.18179 0.024049 0.016742 0.031973 -0.029944 0.062069 0.15565 -0.13751 -0.072789 0.074782 0.14036 0.030543 -0.031407 -0.065541 0.0057173 -0.17281 -0.027877 0.061388 0.051684 0.12774 0.10082 0.0061942 0.20355 0.098301 0.19529 -0.02769 0.021821 -0.12154 0.023549 -0.11453 0.14498 0.071901 0.067377 -0.10734 0.13821 0.1052 -0.015914 0.11678 -0.35457 0.10382 -0.057978 0.13503 0.22061 -0.38497 0.066867 -0.21346 -0.11881 -0.11354 0.18039 0.09246 -0.0022468 0.084706 -0.039529 -0.070707 0.075969 0.23282 0.099642 0.083426 -0.32886 -0.13182 -0.0631 -0.10136 0.22117 0.02344 0.42078 0.24853 -0.026869 -0.25818 0.12576 0.011694 -0.081516 0.17264 -0.090721 0.28913 -0.063758 -0.11098 -0.021474 0.085884 -0.060158 0.25847 0.38928 -0.059468 0.0065788 -0.12795 -0.093877 0.13591 -0.010955 -0.037765 -0.21992 0.053085 0.12612 -0.21536 0.054632 
is -0.13646 0.0015487 -0.14949 0.02436 -0.18268 0.10309 -0.16792 0.35559 -0.060368 0.050385 -0.070098 0.2138 0.18743 0.17709 0.11804 -0.1711 0.012691 0.082071 0.0058385 -0.11632 -0.10978 -0.051435 0.15983 -0.26579 0.14243 0.068426 0.12732 -0.18785 -0.13946 0.25252 -0.2535 0.11767 -0.11643 0.14179 0.043348 -0.0032655 -0.14265 0.11114 -0.097331 0.18106 0.012884 0.19284 -0.040346 0.25531 0.02696 -0.054626 -0.16435 0.013992 -0.067275 -0.074075 -0.03005 0.13579 0.0056784 0.025613 0.185 0.1194 0.1147 0.012809 0.14236 0.0066114 0.02209 0.071175 0.037331 -0.18169 -0.17169 -0.02058 0.13532 0.015152 -0.04848 -0.21666 0.19099 0.26769 -0.15377 0.21399 -0.29111 -0.072787 0.17108 0.089686 0.053503 -0.004605 0.10299 -0.19203 0.10527 0.0072188 0.034886 -0.016201 -0.045922 0.12407 0.14233 -0.0036275 0.037313 -0.030557 -0.14016 -0.1325 -0.16879 -0.083751 0.055804 -0.058571 -0.085359 -0.19305 0.061338 0.041946 -0.09336 -0.028142 0.13544 -0.15027 0.0072776 0.06823 -0.099042 -0.075359 -0.304 0.053693 0.087115 0.17415 0.033631 0.072462 -0.043925 -0.069133 -0.01414 0.11277 -0.0034988 0.063371 -0.030823 -0.11432 0.0030873 -0.032093 0.02951 -0.011193 0.10442 0.13954 -0.04302 0.012539 -0.093559 -0.017578 -0.022744 0.070239 0.051878 0.094378 -0.032845 -0.17905 -0.25639 -0.10306 -0.29855 0.23117 0.0041872 -0.020836 0.024538 0.10991 -0.065227 -0.016845 -0.09719 -0.037421 0.12091 -0.074874 0.098745 -0.0717 -0.014629 0.074046 0.18421 -0.19787 0.15111 0.016922 -0.083766 0.17268 0.14831 0.13992 0.016822 0.065961 -0.18967 0.16425 0.0075959 0.2495 0.12411 0.080259 0.11927 -0.11462 0.10071 0.10863 0.14557 0.088567 0.064126 0.075809 0.14641 -0.045709 -0.1441 -0.098682 -0.10241 -0.13982 -0.14719 -0.061625 -0.053832 0.0020144 -0.12331 0.029743 -0.22655 -0.24845 -0.081274 -0.0042256 0.011659 0.12364 0.059548 0.22171 0.085938 -0.1808 -0.039755 -0.014323 -0.074622 0.095924 -0.073941 -0.0069569 -0.15488 -0.12554 -0.023342 0.079418 -0.077215 -0.06948 -0.059496 -0.05735 0.13705 -0.057246 -0.032181 -0.16275 -0.12515 -0.0058299 -0.043063 0.026956 0.11603 0.14703 -0.048565 0.035248 0.1156 0.17811 -0.016234 0.093735 -0.16442 0.077726 -0.0017879 -0.022505 0.18203 -0.017897 -0.16148 0.11024 0.086399 0.09739 0.046642 -0.15218 0.40257 -0.073971 0.052954 0.097522 -0.34788 0.045624 -0.1243 -0.16537 -0.1581 -0.030597 0.081702 -0.010182 0.10744 -0.1992 0.069085 -0.001503 0.24998 0.13455 0.14217 -0.20079 -0.14228 0.012688 -0.14877 0.19363 0.057968 0.29622 0.26004 -0.15557 -0.13207 0.1255 -0.067025 -0.031143 0.18627 -0.18627 0.17793 -0.0092066 -0.10909 0.023204 0.01877 -0.018327 0.21209 0.20339 -0.067203 -0.039006 -0.15787 -0.11454 0.22107 -0.06256 -0.091846 -0.38697 -0.12196 -0.0097099 -0.19911 0.10998 
you 0.2477 0.038068 0.030312 0.0012124 0.10718 0.024988 -0.047555 0.18566 -0.059442 0.18751 -0.0086816 0.10345 0.1141 0.15699 0.0025023 -0.1447 -0.14761 0.026968 0.040565 -0.096297 -0.034389 0.063631 -0.10697 -0.07189 -0.057155 -0.049539 0.12719 -0.086418 -0.017384 0.035102 -0.028831 0.08315 -0.0123 0.066738 -0.019283 -0.063708 0.064818 0.082155 -0.018391 0.080034 0.021903 0.038586 0.17324 0.10096 0.019989 0.11679 -0.13012 -0.027959 0.086854 0.022839 -0.042747 0.12395 -0.15871 0.10967 -0.051243 -0.10514 -0.035383 0.017049 0.11507 0.055629 -0.07149 0.12272 0.066785 -0.12822 -0.12083 -0.028843 0.031294 0.037083 0.012339 -0.037671 0.075376 0.044811 -0.056772 0.16243 -0.1526 0.032078 0.21882 0.11392 0.053492 -0.007589 -0.012666 0.05886 0.22668 -0.11598 0.11846 0.042199 0.023992 0.1509 -0.066016 -0.036436 -0.050606 -0.04443 0.011303 -0.085726 -0.074228 -0.099113 -0.18431 0.075295 -0.076128 -0.062393 0.10354 0.080856 -0.0037613 -0.012834 -0.031791 -0.061733 -0.12212 -0.095923 0.034299 -0.0027393 0.038578 -0.13075 -0.062538 0.062688 -0.021017 0.083625 -0.17618 0.028534 -0.022619 -0.021454 -0.019556 0.036299 0.2026 0.059503 -0.1278 -0.13322 -0.14161 -0.14473 0.14861 -0.13845 0.20001 -0.023237 -0.03356 -0.12323 -0.070695 -0.07395 -0.018564 -0.159 -0.023201 0.042501 -0.21607 0.053787 -0.1145 0.35702 -0.043341 -0.036831 0.14808 0.077822 -0.17656 0.023653 -0.17181 -0.039293 0.08982 0.019017 0.0094113 -0.11851 -0.11854 -0.051297 0.10336 -0.095207 0.056369 -0.028795 0.095763 0.19132 0.12694 0.065497 -0.07548 -0.1004 -0.15113 0.10388 -0.061737 0.20376 0.060622 0.076005 0.16585 -0.19435 -0.00072739 0.070356 0.1356 0.15739 0.035271 -0.035382 0.13927 -0.054469 -0.16244 -0.034801 -0.043495 -0.086165 -0.0055816 -0.066009 0.064655 0.092562 0.16746 -0.020231 0.033082 -0.15478 -0.11633 0.032651 0.057164 -0.020033 0.25491 -0.0070114 0.0026423 -0.12784 0.04028 0.087635 -0.047689 -0.12392 0.13097 0.018756 -0.10343 -0.06388 -0.031369 0.0082974 -0.088449 0.038859 -0.13217 0.072909 0.19725 0.072043 -0.10751 -0.066808 -0.11672 0.097319 -0.022184 -0.055404 0.15744 -0.057479 -0.010614 0.097729 -0.021959 0.21812 -0.046521 0.010521 -0.10906 -0.028039 -0.10616 0.048215 0.014242 0.12847 -0.25679 -0.0037807 0.09274 -0.1792 0.17659 -0.25356 0.024628 0.048288 0.27501 0.17275 -0.014896 -0.082412 -0.25722 -0.1498 -0.10622 0.081307 0.10023 -0.07693 0.06061 0.039856 0.14477 -0.030801 0.099507 0.14275 0.039267 -0.13242 -0.12395 -0.10655 -0.086046 0.073553 -0.12252 0.20317 0.17523 -0.15911 -0.14736 0.14935 0.094083 -0.099289 0.12853 -0.059478 0.13861 0.057894 -0.019124 -0.16076 -0.022398 -0.18397 0.06973 0.43783 0.039088 0.015212 -0.08882 0.010781 0.16638 -0.054482 0.12089 -0.25904 0.052459 0.13858 -0.098701 0.14417 
to 0.067066 0.14987 0.015268 0.077597 0.16196 -0.00040225 -0.024998 0.17314 -0.094594 0.16226 -0.096492 0.10047 0.14148 0.020838 0.081112 -0.045101 0.042092 0.12337 -0.084462 0.039261 0.019096 -0.18621 0.078554 -0.17676 -0.042135 0.11778 0.0044033 -0.086084 -0.021773 0.1184 -0.083821 0.12255 -0.041826 0.057178 0.00016479 -0.12198 -0.043857 0.015756 -0.076674 0.0593 -0.011291 0.085788 -0.0052572 0.094938 -0.035686 -0.10812 -0.15563 -0.088942 -0.049584 -0.030562 0.015528 0.16871 0.012503 0.018497 0.059774 -0.0090427 0.05484 -0.071243 0.077414 -0.0078507 -0.084676 0.089301 0.023763 -0.066683 -0.12827 -0.0071616 -0.062332 -0.048808 -0.066262 0.088484 -0.00077923 0.062839 -0.083165 0.067596 -0.10192 -0.0086417 0.10097 0.066592 -0.035965 -0.054154 0.068988 -0.080382 0.10262 0.053737 -0.063965 0.075384 0.055356 0.092345 0.0076347 -0.031451 -0.13493 0.012444 -0.030541 -0.094281 -0.11419 -0.030324 0.033342 -0.015987 -0.16698 -0.093985 0.07536 -0.089696 0.021423 0.051105 0.00021617 -0.12355 -0.020041 -0.053245 0.0053674 -0.066777 -0.090928 0.0096558 -0.1085 -0.012493 -0.088756 -0.13014 -0.083333 0.030832 -0.01725 -0.0060664 0.11136 -0.017644 0.18733 -0.031528 -0.040219 -0.11824 -0.080485 -0.1769 0.0051093 -0.16975 0.10475 -0.035688 0.11614 0.0076629 -0.27963 -0.07476 -0.13209 -0.23038 0.066871 0.14139 -0.1113 -0.032713 -0.0184 0.32784 0.027537 0.072945 0.16399 -0.041915 0.013862 0.070258 -0.021271 0.056045 0.030416 -0.043702 -0.090255 -0.050665 -0.069126 -0.080323 0.045919 -0.062943 0.12198 0.092155 0.083401 0.093656 0.091787 0.05789 0.0080443 0.058657 -0.19612 0.016309 -0.0094514 0.079645 0.10399 0.10275 0.18852 -0.14669 0.033696 0.18509 0.099241 0.099014 0.036986 -0.061396 0.094624 -0.0076868 -0.16116 -0.064619 -0.12639 -0.14224 -0.027537 -0.1096 0.066025 -0.0034873 0.14889 0.05308 -0.063011 -0.14656 -0.14546 -0.021967 -0.044611 -0.10547 0.2698 0.01126 0.041151 -0.1611 0.072476 0.0058236 0.057157 0.089576 0.1992 -0.020288 -0.09849 0.068389 0.060289 0.15063 -0.1293 0.10501 0.12012 0.045191 0.079531 -0.044639 0.0088747 -0.14087 -0.14043 0.079678 -0.012798 0.013891 0.17907 0.063534 -0.06414 0.24215 0.019337 0.15451 -0.026474 -0.033287 -0.14515 -0.049609 -0.083683 0.07619 0.18495 0.052357 -0.11878 0.16469 0.102 -0.056284 0.11707 -0.29104 0.16775 0.028324 0.16142 0.17925 -0.25635 0.18225 -0.26458 -0.11502 -0.047425 0.086545 0.041224 0.043997 -0.011903 0.063857 0.050179 -0.020474 0.17023 0.018245 0.17302 -0.30359 -0.13092 -0.13379 -0.11232 0.23495 0.027755 0.3008 0.18936 0.0040238 -0.18804 0.089842 -0.022682 -0.075279 0.16213 -0.097479 0.17387 -0.064852 0.012018 0.065732 0.076916 0.031413 0.14717 0.43237 0.062947 0.0063634 -0.14199 0.026916 0.18662 0.095009 0.007667 -0.4397 0.093248 0.17872 -0.13682 0.0824 
on -0.11958 0.035434 -0.26598 -0.046211 -0.1516 0.10921 -0.28677 0.36596 -0.13383 0.051993 0.036799 0.22471 0.32322 0.21241 -0.03921 -0.10252 -0.16394 -0.004728 -0.053846 -0.41825 -0.059524 -0.010314 0.097443 -0.19025 0.27257 0.14203 0.10956 -0.39894 -0.17358 0.21926 -0.73379 0.08558 0.26525 0.12937 0.16567 0.10381 0.19385 0.26336 -0.019943 0.42622 0.081345 0.10133 -0.01603 0.16427 0.10517 -0.29445 -0.075699 0.064786 0.17389 -0.1444 -0.012885 0.31045 -0.19971 0.031186 0.11218 0.098746 0.14829 0.11979 0.26469 0.013905 -0.043239 -0.042128 0.075242 0.071118 -0.15717 -0.024698 0.15655 -0.015612 -0.092009 -0.11256 0.37027 0.098552 -0.01755 0.3276 0.15655 -0.003056 0.16867 0.040947 0.15663 0.17206 0.12397 0.071752 0.094959 -0.32652 -0.050036 0.057215 0.10924 -0.033375 -0.11469 0.038412 0.087128 0.019405 0.010312 -0.075328 -0.14498 0.025422 -0.26348 -0.013343 0.10565 -0.16086 -0.072513 0.16675 -0.1243 -0.0097855 -0.013452 0.0057961 -0.14943 -0.030025 0.11253 -0.080681 -0.0072296 -0.14776 0.0052299 -0.10681 -0.0047313 0.20111 0.11999 -0.11024 -0.064426 0.090527 -0.079238 0.16609 -0.13018 -0.025406 0.025559 0.10962 -0.20944 0.094641 0.16804 0.15218 -0.0064581 0.018773 0.085061 0.00054485 0.087506 0.10217 0.19017 0.22157 0.0028468 -0.051752 0.040121 -0.012379 0.035165 -0.17698 -0.073861 -0.0087328 0.08103 0.012227 0.025057 0.11397 0.11951 -0.13145 0.21598 -0.071888 -0.071459 -0.35723 -0.056687 0.027221 -0.037926 -0.12148 0.14017 -0.050963 -0.098668 0.056222 0.02932 -0.029538 0.045822 0.062976 -0.017954 0.18291 -0.13997 0.14653 0.058473 0.12717 0.0084721 0.081522 0.13634 -0.11219 0.076464 -0.10899 0.0052158 0.10411 0.070319 -0.077793 -0.19607 -0.055856 -0.029811 -0.14071 -0.0014345 0.0041533 0.04895 -0.006571 0.11584 -0.010985 -0.06507 -0.11601 -0.068121 -0.083241 0.099077 0.23097 0.10427 -0.019492 0.020642 0.13844 0.09826 0.22432 -0.16909 -0.2254 0.036975 0.10671 -0.32514 0.19892 -0.20433 0.0016389 -0.064371 -0.13719 -0.30401 0.09388 0.13197 -0.21017 -0.059074 -0.043198 0.011072 -0.034592 -0.048958 0.013329 0.16437 -0.075873 0.010588 0.074358 -0.033626 0.024665 -0.1026 0.02162 -0.069037 -0.34163 -0.074799 -0.10853 0.012097 0.03459 -0.28818 0.048169 0.050737 0.077963 -0.10203 -0.10757 0.059051 -0.12796 0.27686 0.21682 -0.093297 0.063485 -0.15354 -0.0065032 -0.093479 -0.094518 -0.24589 -0.1996 -0.022091 0.020864 0.062961 0.070768 -0.031384 -0.092461 0.13219 -0.080867 -0.23087 -0.16667 -0.29585 0.22389 -0.16344 0.1572 0.25392 0.018527 -0.053584 0.21584 0.019119 -0.027265 0.2037 -0.0077198 0.055309 0.21476 -0.26813 -0.17972 0.20833 -0.050604 0.024308 0.29587 -0.0068839 0.041055 -0.11485 -0.24755 0.28901 -0.14047 -0.13177 -0.28112 0.036111 0.013705 -0.17673 0.22479 
and 0.076594 0.19167 -0.17182 0.059804 -0.083984 0.097409 -0.11352 0.42961 -0.22137 -0.020776 0.001024 0.16359 0.31002 0.073779 -0.056511 -0.18701 -0.0029071 0.25361 -0.097719 -0.19501 -0.012898 -0.0062658 0.034454 -0.13128 0.060478 0.11946 0.024332 -0.1168 -0.12861 0.085834 -0.10661 0.16749 0.10414 0.14232 0.15424 0.16158 -0.00096346 0.26489 0.049329 0.2828 0.088528 0.17201 0.085108 0.21332 0.039028 -0.064169 -0.10799 -0.055299 -0.033665 -0.15928 0.096746 0.26672 -0.074002 0.10712 -0.042963 0.24171 0.016255 0.13003 0.21963 0.031245 -0.12534 0.034002 -0.11441 -0.24164 0.038215 0.067728 -0.058524 -0.099802 -0.12674 -0.15522 0.32638 0.33816 -0.16939 0.35086 -0.12576 -0.067592 0.082651 0.010343 0.018556 0.066317 -0.01953 0.053136 0.010732 -0.23867 -0.1406 -0.059089 0.047718 -0.02896 -0.0047085 -0.018707 0.20737 -0.25239 -0.071545 -0.13677 -0.063089 -0.062997 -0.12274 0.081648 0.044412 -0.24026 -0.029861 0.1047 -0.095057 -0.069743 0.065331 -0.057294 -0.085783 -0.016964 0.078195 -0.11576 -0.089757 0.21015 -0.059887 0.013299 0.105 0.032649 -0.21569 0.020241 -0.10675 0.1028 0.049256 -0.011892 -0.040301 -0.047309 0.026763 0.11257 0.050926 0.058718 0.23773 0.02951 -0.033587 0.033565 0.043283 0.048041 -0.13345 0.1442 0.15152 0.26167 -0.069444 -0.21592 -0.2871 -0.16037 -0.21911 0.17901 0.026536 0.014637 0.26247 0.1865 -0.17282 0.089641 0.088345 -0.096824 0.12234 -0.19412 0.05436 -0.30248 0.058607 0.016795 -0.054829 -0.29739 -0.078073 -0.040356 0.082672 -0.015884 -0.029791 0.072426 0.077495 0.098026 -0.034597 0.089464 -0.071574 0.17123 0.27949 0.03397 0.10706 -0.20057 -0.014535 -0.089567 0.081019 -0.065009 0.25492 0.078647 0.090107 -0.21284 -0.26234 -0.22322 -0.0010808 -0.28066 -0.033621 0.041155 0.079621 0.025275 0.16442 -0.012596 -0.24969 -0.097662 -0.15774 0.14509 0.11188 0.095613 0.10544 0.034844 -0.087115 -0.079863 0.12332 0.13505 -0.18042 -0.015455 0.11959 0.006307 -0.35352 0.027688 -0.2826 0.086611 -0.18919 0.051478 -0.13523 0.096563 0.242 -0.054894 -0.15308 -0.081562 -0.083605 0.15679 -0.099133 0.010001 0.10024 0.09348 -0.038995 0.16962 0.002965 0.16448 -0.16084 0.17319 -0.063244 -0.14122 -0.14305 -0.14647 0.22954 0.02269 -0.27541 0.044286 0.06773 -0.061968 -0.001366 -0.23487 0.24408 -0.029218 0.18403 0.2493 -0.13903 0.020757 -0.36209 -0.093147 -0.068253 -0.1256 -0.016779 0.0098295 0.10115 0.011216 0.26372 -0.16465 0.19747 0.047554 0.19686 -0.1323 -0.15061 0.10924 -0.19743 0.16608 -0.24324 0.16224 0.10082 -0.035458 -0.28607 0.15133 0.026271 -0.082456 0.17862 -0.089329 -0.080922 0.035429 -0.013855 0.020586 0.007923 -0.17026 0.14029 0.10989 -0.056597 0.11919 -0.22741 -0.13111 0.31854 -0.012833 -0.040315 -0.34113 -0.17096 -0.1165 -0.15111 0.33292 
in -0.13438 0.023761 -0.26805 -0.01391 0.13885 -0.063726 -0.039081 0.13829 -0.063019 0.094969 -0.0085625 0.030446 0.18347 0.12512 -0.033425 -0.22356 -0.060807 0.072425 -0.061395 -0.17112 0.031555 0.053159 -0.079806 -0.31044 0.065903 0.20722 0.28738 -0.26415 -0.2019 0.47291 -0.42366 0.14363 0.14643 0.30071 0.034097 0.25165 -0.03338 0.20955 -0.071868 0.2393 -0.030081 0.1158 0.25611 0.12193 -0.011563 -0.46782 -0.1106 -0.22273 0.041659 -0.33921 -0.032546 0.52255 -0.039252 0.13487 0.066701 -0.14903 0.11244 0.13744 0.20181 0.10278 -0.082078 0.15772 0.037938 0.0046874 0.098412 -0.028069 0.038373 0.17285 0.20129 -0.14892 -0.0016211 0.17577 -0.17284 0.27644 0.010669 0.14847 0.25099 0.16046 0.18779 -0.041808 0.072644 0.17663 0.052151 -0.17817 0.066369 -0.059745 -0.074671 0.2371 -0.064056 -0.057675 0.0115 -0.11 -0.10954 0.048804 0.0045809 -0.049611 -0.1672 0.023078 -0.23188 -0.23091 0.10622 0.2002 -0.013618 -0.17465 -0.080937 -0.086127 -0.11707 -0.0097376 0.057851 0.15062 0.12802 0.0092423 -0.0087586 -0.080723 -0.041176 -0.14897 -0.091083 0.23871 -0.011996 -0.06061 -0.099288 -0.16868 0.2883 0.020017 -0.045676 -0.10767 -0.15199 -0.24411 -0.14486 -0.19674 0.31967 -0.15306 -0.10224 -0.24375 -0.15946 0.057364 0.11248 -0.41427 0.07567 0.0090845 0.020066 0.025456 -0.073173 0.38084 0.077375 -0.15252 0.061277 0.10457 -0.078373 -0.10607 -0.14472 0.061892 0.033195 0.089853 -0.033864 -0.12402 0.03472 -0.094805 -0.13578 -0.12984 0.12326 -0.10398 -0.089812 0.13274 0.147 -0.058158 -0.034305 0.057498 -0.025574 0.17848 -0.08717 -0.083772 0.084 0.11131 0.080639 -0.15147 -0.069614 0.075689 0.039364 0.0089691 0.11545 0.064987 -0.035934 0.092641 -0.070357 0.08114 -0.0095026 -0.067184 0.009028 0.022522 0.12025 -0.055374 0.060722 -0.047788 -0.16673 -0.089582 0.050266 0.047411 -0.088523 -0.13084 0.17586 -0.034317 0.024562 -0.1248 0.14637 0.026664 0.17338 0.059779 0.12486 -0.017014 0.083722 -0.092537 -0.03707 0.17513 0.085829 0.19172 -0.1293 0.095088 0.066963 -0.12319 -0.10689 -0.11567 -0.036743 0.06921 0.0027524 -0.12845 0.068637 0.038976 -0.0018508 0.21607 0.066025 0.050198 -0.058142 0.11063 -0.086497 -0.0034511 -0.034555 0.11084 0.013551 0.1815 0.094262 -0.063273 0.065387 0.015158 0.03582 -0.21699 -0.01248 0.19138 0.2042 0.21449 -0.13634 0.015509 -0.090792 -0.16508 0.001798 0.123 -0.0042248 0.046109 0.18252 -0.002545 0.10038 -0.041851 -0.021688 0.040026 0.08293 -0.055706 0.09265 -0.10523 -0.12358 0.0077442 -0.25929 0.20485 0.024338 -0.24087 -0.058069 0.084254 -0.049626 -0.066987 0.1176 -0.19627 0.18285 -0.17024 -0.11673 -0.091407 0.058648 -0.1218 0.15054 0.19962 -0.099995 0.15612 -0.16998 0.033511 0.24836 0.014493 0.0021337 -0.19048 0.054553 -0.095745 -0.10608 0.046349 
for 0.033728 0.061351 -0.15323 -0.10608 0.1092 0.036791 -0.10016 0.13011 -0.0065848 0.16266 -0.10553 0.076791 0.10307 0.065885 -0.044424 -0.02433 -0.072931 -0.085361 0.024039 -0.075437 -0.089044 -0.084541 0.019451 -0.30528 -0.035764 0.056304 0.1095 -0.11 -0.028217 0.20982 -0.27758 0.13614 0.086227 0.18294 0.1653 -0.00996 0.091554 0.18329 -0.039546 0.063607 -0.061281 0.036497 0.090841 0.10598 -0.041917 -0.25043 0.089627 -0.21118 0.23052 -0.073138 -0.045306 0.23754 0.039299 0.10947 0.0011273 -0.17077 0.051309 0.034655 0.15533 -0.064647 -0.0141 0.16679 0.032806 0.16683 -0.11856 -0.049069 0.10265 0.20097 0.071549 0.064177 0.26681 0.012253 -0.021819 0.11405 0.17317 0.21546 0.12446 0.16283 0.052826 0.11064 0.21455 -0.0031932 0.16333 -0.17109 0.045223 0.13964 -0.10609 0.18597 -0.14383 -0.097927 -0.14885 -0.14639 0.009516 0.069513 0.11036 -0.012059 -0.18453 0.028037 -0.058441 -0.033736 0.14895 -0.019408 -0.06502 -0.00072916 -0.17508 -0.010198 -0.13294 -0.024247 0.14493 -0.0068806 0.094406 -0.11284 -0.11073 -0.12144 0.081051 -0.0066551 0.011976 -0.053724 -0.011106 0.13953 -0.067039 0.0064011 -0.037609 0.10572 0.017507 -0.0065135 -0.097003 0.067937 -0.10844 -0.047793 0.03264 0.055974 -0.0092239 -0.074549 -0.10354 -0.049636 0.022761 -0.12455 0.050559 0.072018 -0.010134 -0.14606 0.024071 0.27315 0.11797 -0.12442 0.13366 -0.078455 0.11858 0.036146 -0.14985 0.047407 0.13434 0.027925 -0.046157 -0.18019 -0.035496 -0.079505 0.0067141 -0.059761 0.16542 -0.0027209 -0.13128 0.16996 0.1357 0.1325 0.063425 -0.069439 -0.1777 0.052833 -0.14113 0.094435 0.11056 0.15368 0.098607 8.7346e-05 0.15375 0.12943 0.020369 0.10238 -0.085363 -0.064521 0.1112 0.097856 -0.2413 0.028938 -0.079259 0.0023821 0.05542 -0.066051 0.18857 0.003768 0.11396 -0.027066 -0.16611 -0.17957 -0.16723 -0.038117 -0.069348 -0.097601 0.23535 -0.033984 0.081877 -0.045052 0.16742 0.203 0.15373 0.012214 0.20733 0.054515 -0.1325 0.16489 0.030882 0.12738 -0.21381 0.048712 -0.24463 0.17911 0.1751 -0.026364 -0.090479 -0.029274 -0.099236 0.023377 -0.098426 -0.027674 0.27852 0.02848 0.053001 0.21512 0.030611 0.20423 -0.019825 -0.13326 -0.021599 -0.18253 -0.12167 0.12505 -0.039989 0.065879 -0.24762 0.19108 0.11643 0.078097 0.07283 -0.27313 0.051749 0.013437 0.35406 0.10368 -0.16622 0.1477 -0.22695 -0.20585 -0.005425 0.034471 0.037656 0.094952 0.027238 -0.06194 -0.044973 -0.049484 -0.042075 0.095177 0.07484 -0.096804 -0.077408 -0.21476 -0.091486 0.18148 -0.13058 0.30536 0.16707 -0.086402 0.03066 -0.0065758 -0.10584 -0.0087889 0.12691 -0.011239 0.21893 0.10053 -0.081262 -0.02487 0.012668 -0.062754 0.12111 0.39694 0.04113 0.015484 0.034857 -0.10148 0.21342 0.0094145 0.088804 -0.18906 0.13655 0.16342 -0.095833 0.13991 
a -0.061365 0.028176 -0.11196 -0.10617 0.016012 -0.10807 -0.069229 0.24131 -0.075343 0.026913 0.048557 0.09129 0.24049 0.11688 -0.049203 -0.14651 -0.11771 0.18396 -0.087295 -0.10484 -0.052958 -0.059968 0.20526 -0.30961 0.14093 0.22069 0.052912 -0.18091 -0.1498 0.34755 -0.27334 0.029699 0.0028271 0.10321 0.16602 0.10566 0.025356 0.21765 -0.15462 0.34683 0.018858 0.068821 -0.096436 0.093674 -0.004796 -0.17898 -0.028558 -0.022878 0.18957 -0.22192 0.21274 0.21139 0.042652 -0.1291 0.12954 0.23294 -0.11152 -0.10518 0.12491 0.0013478 -0.088216 0.023317 -0.2464 -0.10993 0.034392 0.089002 -0.087427 0.045876 0.061926 0.13479 0.19629 0.062543 0.062734 0.14204 -0.072143 -0.075115 0.0014352 0.027933 0.14264 -0.083993 0.18166 0.0053408 -0.064039 -0.18309 0.0048601 0.032132 -0.07622 0.14603 -0.074156 0.062217 -0.10238 -0.13658 0.012827 0.025763 -0.043064 0.27611 -0.20474 0.087934 -0.18035 -0.10091 0.099396 0.023151 -0.032267 -0.07417 -0.20063 0.012946 -0.083496 0.051217 0.11708 -0.09114 0.14586 0.015614 -0.13585 -0.13623 0.033998 -0.04699 -0.041221 -0.045515 0.026492 0.034576 0.084883 0.0043451 -0.16743 0.27076 -0.066273 -0.0437 0.036752 -0.038256 -0.026471 0.16969 -0.022847 -0.067458 0.14532 0.078337 -0.10428 -0.067955 0.009756 0.078207 -0.06945 0.18535 -0.17864 -0.29205 -0.059659 0.10726 0.11601 -0.0093982 0.15515 -0.068763 -0.037285 0.012656 -0.042093 0.032925 0.29115 -0.085946 -0.073366 -0.21762 0.010569 -0.098174 -0.12564 0.042539 0.056665 0.13632 -0.080298 0.058154 -0.0056288 0.078099 0.076966 0.21593 -0.13007 0.084849 -0.12226 0.18573 0.12848 0.021322 0.0237 -0.078899 0.19947 0.029369 -0.049351 -0.058203 -0.087997 -0.0020237 0.041977 -0.055281 -0.19335 0.045001 0.088333 0.010851 -0.0028543 -0.084619 0.070843 -0.08848 0.13304 -0.063879 -0.11406 -0.099419 0.009302 -0.083807 -0.034782 -0.077539 0.11048 -0.051064 0.0011236 -0.01075 0.19204 0.11362 -0.032424 -0.095591 -0.04409 -0.0029253 -0.27078 0.11808 -0.021998 0.034722 -0.11966 -0.25735 -0.048056 0.064285 0.052101 -0.060785 0.014644 0.13377 -0.078862 0.088473 -0.064878 0.079061 0.042105 0.094687 0.16129 0.040738 0.053036 -0.016916 -0.063 -0.022853 0.037504 -0.10565 -0.074596 -0.092124 0.1219 -0.15475 -0.092758 0.1913 0.089134 0.18249 -0.11394 -0.18784 0.12675 -0.013043 0.18785 0.062443 -0.27663 -0.022613 -0.1367 0.01691 -0.069298 -0.046285 -0.17687 -0.024851 0.10794 -0.15128 -0.03769 0.2327 0.03331 -0.068347 0.31923 -0.13564 -0.0010619 -0.044434 -0.06187 0.21563 -0.17656 0.31223 0.27043 0.029118 -0.20214 0.19128 0.070732 -0.041895 0.32127 -0.024963 0.10832 0.15035 -0.2085 0.035487 0.052901 0.030455 0.18766 0.24468 -0.0066038 0.089833 -0.32144 -0.041971 0.17022 -0.064966 0.062757 -0.30293 -0.10111 0.14887 0.0095572 0.15286 
at -0.063745 0.018003 0.035472 -0.047755 -0.15367 0.070726 0.077492 0.23711 -0.036182 0.075713 0.052019 0.15033 0.21477 0.20877 0.32221 -0.044652 -0.11394 -0.012281 -0.062801 -0.30906 -0.12722 -0.15762 0.15993 -0.31526 0.25238 0.16325 0.10214 -0.29696 -0.16953 0.22429 -0.48725 0.094401 -0.1363 0.21832 0.046761 0.16696 -0.032596 0.14514 -0.18224 0.2984 -0.056279 0.1943 -0.18069 0.33591 0.046735 -0.29609 -0.11514 0.068245 -0.090961 -0.10693 0.036628 0.035743 -0.17141 -0.14578 0.23689 -0.0384 0.2219 -0.030461 0.27395 -0.053161 0.056587 0.12376 0.16185 -0.037748 -0.19441 0.018206 0.18787 -0.010533 0.015671 -0.051551 0.12054 0.16045 0.11152 0.27834 -0.30812 -0.042475 0.21421 0.11874 0.023842 0.013288 -0.045809 -0.022354 0.17942 -0.19721 0.056182 -0.06535 -0.096969 0.15638 0.087284 0.13305 -0.035137 0.005463 0.0074227 -0.043545 -0.13524 0.065145 0.075155 0.10159 0.0065434 0.14737 -0.050941 -0.051089 0.028639 0.058096 -0.068893 -0.1904 0.015588 0.089316 -0.088918 -0.135 -0.19211 0.068922 -0.050381 0.20626 0.022768 0.12571 0.0019406 -0.26455 -0.048032 0.022452 0.022009 0.015032 -0.10648 0.09788 0.035592 0.11221 -0.045414 0.075028 0.22544 0.087204 -0.056155 0.037981 0.024338 0.073754 -0.082237 -0.021834 0.0076724 0.092475 -0.15001 -0.18508 -0.17025 0.019348 0.079999 0.083985 -0.045157 0.03357 0.069275 0.028989 0.11533 0.11175 -0.12332 -0.042399 -3.4538e-05 -0.14717 0.055604 -0.020563 -0.014281 0.022881 0.037778 -0.082746 -0.069976 -0.053167 -0.033731 0.021189 0.016765 0.12866 0.079247 0.14627 -0.14368 0.11383 0.01897 0.090365 0.19959 0.044981 -0.020081 -0.034054 0.10295 0.096744 0.033354 0.063123 -0.172 0.036475 0.24561 -0.14399 -0.16271 -0.012211 -0.26701 -0.29939 -0.16498 -0.1359 -0.1873 0.012127 0.043666 0.0036438 -0.093658 -0.22898 -0.21116 0.25608 -0.031316 0.2206 0.15611 0.23206 -0.063507 -0.10147 0.0022876 0.14879 -0.027315 -0.16148 -0.03498 -0.089301 -0.3413 0.011741 -0.047634 0.12371 -0.088331 -0.046636 -0.21463 -0.20316 0.062073 0.12082 0.052678 -0.018358 -0.10166 0.021064 -0.056582 0.055147 0.12365 0.086696 0.0077229 0.14799 0.071472 0.20979 -0.13954 -0.079193 0.014388 -0.056726 -0.11715 -0.11489 0.15045 -0.099126 -0.32202 0.082323 0.046649 -0.052123 0.065664 -0.053973 0.24386 -0.091402 0.20982 -0.085447 -0.26209 0.054127 -0.12551 -0.16039 -0.14974 -0.16441 -0.042416 -0.20507 0.0013529 -0.00026371 0.15612 -0.076665 0.29514 0.11098 0.23767 -0.32484 -0.1126 -0.056708 0.02143 0.17537 -0.037536 0.2068 0.35282 0.013635 -0.041624 0.22069 0.11091 -0.054083 0.14771 -0.033226 -0.03398 0.15534 -0.10562 0.1381 0.019095 -0.14111 0.17715 0.34724 0.065365 -0.085632 -0.11775 -0.11148 -0.019387 -0.10508 -0.071808 -0.46709 -0.11483 0.024767 -0.092984 0.044591 
there -0.14854 -0.0015831 -0.05953 0.061886 0.11925 -0.00238 -0.016143 0.25972 0.012175 0.18432 0.021734 0.10524 0.060918 0.1694 0.039364 -0.14331 -0.015386 0.09281 0.071333 -0.12157 0.042071 0.052104 0.004715 -0.18968 0.14404 -0.0090389 0.17156 -0.18328 -0.10889 0.37587 -0.22999 0.033663 -0.14867 0.122 -0.064786 0.035366 -0.055704 0.14942 -0.072658 0.20281 0.063271 0.16372 0.013132 0.055806 0.043391 -0.20925 -0.18165 -0.0072087 -0.038816 -0.19221 0.029097 0.31175 -0.056419 0.12939 0.12662 0.097422 -0.011084 -0.064994 0.13866 0.19942 -0.08971 0.1472 -0.060104 -0.10819 0.0034813 0.08239 0.03023 0.079 0.058484 -0.077173 -0.16257 0.14798 -0.01959 0.1162 -0.23607 -0.1134 0.18852 0.090914 0.11309 -0.11732 0.098507 0.10714 0.054745 -0.071688 0.087969 -0.044149 -0.045817 0.11486 -0.00038433 0.033978 -0.15503 0.049675 -0.0036404 0.099425 -0.028054 0.077635 -0.10356 -0.049978 -0.25594 -0.11513 0.20444 0.1265 0.077937 -0.1012 -0.055782 -0.14818 -0.032609 -0.040695 -0.1053 0.080477 -0.026978 -0.034007 0.035972 0.1128 -0.048938 -0.045407 -0.095715 0.17081 -0.06181 -0.071289 -0.0044909 -0.00014362 0.27582 -0.020315 -0.1395 -0.20547 -0.18389 -0.271 0.045229 0.0054888 0.019925 -0.27271 -0.0091546 -0.058368 -0.053279 0.074081 -0.01304 -0.21226 0.026821 0.062424 -0.094587 0.074966 -0.065822 0.11238 0.10461 -0.11449 0.045386 0.030423 -0.24875 0.0017806 -0.096547 0.036577 0.088724 -0.042997 0.0047332 0.051873 -0.033709 -0.037513 0.081212 -0.10485 0.16178 0.074991 0.016139 0.19179 0.089578 0.056588 -0.039916 0.076866 -0.11335 0.083044 -0.018489 0.18335 -0.086935 0.11179 0.13017 -0.15918 0.033719 0.0019462 0.14 0.094784 -0.020314 -0.024665 0.02094 0.071261 -0.0959 0.098584 -0.062097 -0.098438 -0.061449 -0.14056 0.16048 0.0057423 -0.014079 0.16231 -0.061495 -0.20989 0.038834 -0.074662 0.076282 -0.089196 0.17644 -0.023497 -0.012957 -0.037406 0.0584 0.0069155 -0.045581 -0.1156 0.061873 -0.049697 -0.02861 -0.21704 0.018166 0.063651 0.024671 0.027465 0.046741 -0.023652 0.0061577 -0.025098 0.043148 -0.06786 -0.030385 0.10658 0.078932 -0.02186 0.11732 0.13736 -0.0038064 0.155 0.073115 0.20138 -0.15329 0.055419 -0.17792 -0.045395 -0.1353 0.073977 0.1111 0.082359 -0.10886 0.15734 -0.058803 0.06584 -0.060192 -0.20917 0.15604 0.037141 -0.012421 0.099108 -0.17318 -0.0036474 -0.0037072 0.075608 -0.10366 0.022634 -0.10267 -0.10668 -0.031851 -0.0030332 0.15197 0.11148 0.16072 0.10646 0.19587 -0.20837 -0.14569 -0.058772 -0.021415 0.089278 -0.040465 0.28926 0.22299 -0.11912 -0.20815 0.27301 0.1176 -0.044117 0.091072 -0.082979 0.13505 0.0039856 -0.2474 -0.084866 0.040128 0.0081591 0.024624 0.26261 -0.044941 0.1278 -0.14716 -0.012013 0.042351 -0.10473 -0.091979 -0.23703 -0.011082 0.17 -0.11745 0.051656 
what 0.049321 0.070962 0.054735 0.062675 0.14672 -0.021411 -0.080478 0.40439 -0.049777 0.2351 -0.063408 0.084407 0.069804 0.14849 0.049877 -0.16389 -0.044987 0.02638 -0.0057497 -0.10125 -0.001417 -0.00028174 -0.11875 -0.27933 0.016124 0.2152 0.19596 -0.14999 -0.14278 0.11379 -0.14523 0.23068 -0.095467 0.31281 0.038153 -0.15262 -0.0075118 0.16644 -0.17944 0.087915 -0.1045 0.23095 0.19972 0.22069 -0.076246 -0.025183 0.027738 -0.11407 0.22078 -0.038946 -0.018016 0.17357 -0.0024648 0.071759 -0.12138 -0.24831 0.14797 0.081622 0.23627 -0.12318 0.033592 0.1359 -0.016758 -0.051721 -0.06929 -0.077667 0.10966 0.20479 0.01948 -0.048355 0.22612 0.24883 -0.21955 0.12224 -0.11866 0.12735 0.16604 0.22355 0.06524 0.016306 0.15497 -0.017573 0.20061 -0.13736 0.15454 0.055495 -0.031503 0.32819 0.082564 -0.11301 -0.18001 -0.13682 -0.15905 0.0278 -0.12215 -0.14381 -0.13427 0.029716 0.069645 -0.18252 0.19504 0.0026154 0.004143 -0.042663 -0.16772 -0.060615 -0.021528 -0.10515 0.1034 0.013942 -0.15724 0.029253 -0.041883 -0.039435 0.033207 0.0052322 -0.11635 0.094235 0.26332 0.033849 -0.029237 -0.050482 -0.015803 0.0015108 -0.12159 -0.10072 -0.033972 -0.061849 0.10383 -0.10927 0.1618 0.25085 -0.19141 -0.085234 -0.12207 -0.14758 0.066015 -0.1018 0.013916 -0.059733 -0.21846 -0.15416 -0.169 0.40639 -0.13554 -0.083604 0.021904 0.038075 0.046293 0.028671 -0.34093 -0.018754 0.22022 0.025893 0.098053 -0.19793 -0.025233 0.11205 0.13348 -0.23161 0.206 -0.16806 -0.063533 0.15165 0.31608 0.077453 0.050694 -0.16819 -0.058622 0.18289 -0.21468 0.027672 0.20216 0.12979 0.14088 -0.059877 -0.039747 0.12438 0.012192 -0.048417 0.050641 0.0069142 0.18737 0.037847 -0.31986 -0.026458 -0.091719 -0.059102 -0.049899 -0.035538 0.053471 -0.046749 0.097746 0.055004 -0.16035 -0.22108 -0.27007 -0.0096849 -0.022974 0.048136 0.072019 0.12577 0.18745 -0.11645 0.094391 0.051434 -0.040533 0.16593 0.069178 -0.024778 -0.13311 -0.10795 -0.030804 -0.020813 -0.21683 0.12882 -0.19109 0.13677 0.2032 0.018289 -0.11943 -0.091496 -0.16232 -0.096797 0.03791 0.024733 0.31596 0.029096 0.068418 0.13803 0.15438 0.35221 0.059639 0.02755 -0.046924 0.032091 -0.10027 0.049211 0.10007 0.077738 -0.20758 0.11411 0.16955 0.02959 0.25967 -0.23225 0.24313 0.016647 0.31185 0.13785 -0.17784 0.10987 -0.27337 -0.29734 -0.16663 0.10862 0.16488 0.085536 0.12945 -0.10566 0.026105 -0.064925 0.13199 0.13161 0.17088 -0.047675 0.081169 -0.29025 -0.18669 0.21963 -0.057974 0.32585 0.14698 -0.27738 -0.034534 0.00042652 -0.11374 -0.065876 0.14879 -0.080663 0.21404 -0.064997 -0.033455 -0.03144 -0.0025982 -0.14608 0.22821 0.46997 0.026209 0.035729 -0.039743 -0.070572 0.22818 0.051057 0.0085675 -0.31422 -0.0089487 0.13383 -0.27715 0.17104 
i -0.16979 0.012219 -0.11506 -0.076201 0.04399 0.10133 -0.19502 0.14194 0.016293 0.20491 0.00595 0.15108 0.24065 0.24004 0.0057545 0.006088 -0.23871 -0.037197 -0.084567 -0.19056 -0.078537 -0.02259 0.17877 -0.28824 0.092852 0.22464 0.041077 -0.039209 -0.036421 0.098244 -0.22192 0.18144 -0.022766 0.064931 0.072474 -0.097746 0.06461 0.096395 -0.24281 0.10235 0.054218 -0.022449 0.013043 -0.0022133 0.055524 0.029298 -0.12815 -0.054356 0.054438 -0.03506 -0.13432 0.20353 -0.14031 -0.012442 0.032823 -0.041546 -0.049753 0.10251 0.14748 0.006853 -0.13987 0.18065 -0.044506 0.052371 -0.21335 -0.014784 0.05606 0.10152 0.021552 0.093794 0.10993 -0.0091393 0.0019728 0.021917 -0.12055 -0.045338 0.077019 0.094127 -0.0063177 0.00088838 0.23166 0.12425 0.14578 -0.10217 0.087792 0.042215 -0.042922 0.026383 -0.13548 -0.012339 -0.15946 0.040867 -0.033194 -0.035406 -0.016674 -0.031791 -0.12756 0.10068 -0.013392 -0.066983 0.14299 -0.075755 0.087397 0.019003 -0.044837 0.019327 -0.081096 -0.19079 0.084846 -0.036746 0.012136 -0.15634 -0.0086003 -0.072177 -0.16169 -0.051484 -0.00026369 0.096836 0.065495 0.012306 -0.010002 0.028194 0.20955 0.14802 -0.11085 -0.15183 -0.092417 -0.22211 0.086999 -0.13713 0.037731 0.00016741 0.017335 -0.0013122 -0.13962 -0.19492 -0.12922 -0.244 -0.023838 0.21124 -0.26193 -0.10493 -0.037175 0.31891 -0.054522 -0.10574 0.21332 -0.10756 -0.13377 0.08475 -0.10828 0.032581 0.2622 0.037645 -0.18173 -0.12016 -0.16301 -0.0010626 0.14151 -0.020775 0.12373 0.22013 -0.0030866 0.21737 0.07526 0.14654 -0.060878 -0.022514 -0.14212 0.029749 -0.16237 0.27473 0.051361 0.19812 0.12053 -0.066689 0.16728 0.14175 0.033272 0.10681 -0.026233 -0.14121 0.049829 0.068834 -0.18089 -0.036512 -0.061645 -0.0243 0.0046155 -0.06959 0.037978 -0.026407 0.14984 -0.014083 0.0013976 -0.14148 -0.13307 -0.16363 0.0098216 0.081312 0.12554 -0.064103 0.018369 0.02983 0.069795 0.094817 0.0080717 -0.14595 0.19635 0.029667 -0.14883 0.11397 0.14391 0.036139 -0.25 -0.056773 -0.1209 0.043586 0.031141 0.0093629 0.041335 0.10189 -0.061743 0.062144 -0.033813 0.076724 0.26058 -0.010557 -0.040809 0.090504 0.017899 0.10741 0.0084171 -0.099249 0.081672 -0.11357 -0.045358 0.0167 -0.016699 0.036345 -0.19053 0.19229 0.096411 0.070917 0.025732 -0.068221 0.046298 -0.0082392 0.22294 0.011746 -0.028928 0.09612 -0.13995 0.0010998 -0.0049219 -0.034529 -0.014027 0.0027021 -0.065678 -0.094479 0.032715 0.095918 -0.034765 -0.0048772 0.083157 0.0063554 0.0055196 -0.20316 -0.040175 0.17703 0.0076489 0.12834 0.19296 -0.094086 -0.052191 0.024065 -0.023836 0.0011759 0.065317 0.0413 0.12056 0.025731 -0.12887 -0.023702 0.0171 -0.00032416 0.036858 0.24526 0.073613 -0.01863 0.088359 0.0079927 -0.027948 0.053107 0.12442 -0.19769 0.085465 0.30355 -0.017388 0.076401 
be 0.055097 0.10875 -0.15007 0.17199 0.020796 -0.032667 -0.074852 0.18064 -0.1069 0.04868 -0.1023 0.16035 0.22861 0.15869 -0.040278 -0.16276 -0.084516 0.085223 -0.13176 -0.30033 0.061766 0.044133 0.023352 -0.18072 -0.14961 0.29635 0.056108 -0.085638 -0.15118 0.25103 -0.32824 0.12415 0.12446 0.23894 0.11415 0.10454 -0.033767 0.30977 0.032371 0.25022 -0.00067693 0.12744 0.085974 0.19933 0.096707 -0.25012 0.0072705 -0.14471 0.055971 -0.29091 0.045438 0.3449 -0.05308 0.23988 -0.1008 -0.075788 -0.00062134 0.24816 0.11537 -0.012291 -0.023198 0.13022 -0.0071559 -0.0021481 0.14817 -0.1014 -0.029222 0.13871 -0.048265 -0.15108 0.10483 0.33498 -0.10071 0.21142 0.056818 0.079219 0.14104 -0.08624 0.13364 0.012404 0.071204 -0.2304 0.001969 -0.164 0.0077557 0.023335 -0.017258 0.022383 -0.015177 -0.094862 0.091728 0.024501 0.010553 0.024904 0.0084785 -0.083691 -0.042242 -0.023447 -0.1239 -0.29146 0.044116 -0.038326 -0.10914 -0.10353 0.053873 -0.082162 -0.13834 -0.11624 0.10026 -0.0048413 0.017626 0.019573 0.039717 0.01422 0.0079804 -0.048941 -0.073911 0.11749 0.10505 -0.015626 0.033066 0.051394 0.20726 -0.037262 -0.079978 -0.023348 -0.048346 -0.20228 0.057075 -0.06361 0.1761 -0.1034 0.024648 -0.1368 -0.04517 0.029493 -0.02062 -0.18484 0.009376 0.12331 -0.014513 -0.1399 -0.18188 0.2797 0.043123 -0.040414 -0.0021935 0.13677 -0.15429 -0.022997 -0.097998 -0.087152 0.21529 0.067546 0.028735 -0.11974 -0.076479 0.046576 0.16181 -0.21243 0.25613 -0.062502 -0.13149 0.14471 0.24243 0.10483 0.094175 -0.071193 -0.0089558 0.076875 -0.043129 -0.0040497 0.13072 0.093969 0.18113 -0.086507 0.074307 -0.085037 0.07575 -0.13295 0.028663 -0.0515 -0.033085 0.13908 -0.15342 0.0090741 -0.040005 0.057123 0.048624 -0.030773 0.23916 -0.077744 0.084772 0.076671 -0.20557 -0.1236 -0.20365 0.12097 -0.10595 -0.049119 0.4073 -0.029693 -0.043306 0.037083 0.19806 0.047269 -0.099517 0.044704 0.17663 0.13326 0.0075533 0.010082 -0.052439 0.058933 -0.076458 0.062171 -0.078969 0.18622 0.1446 -0.10858 0.0013256 -0.30381 -0.0205 0.0074121 -0.040152 -0.0015706 0.10367 0.048106 0.12467 0.16791 0.21562 0.17325 0.10691 0.12834 -0.13766 -0.062677 -0.10316 -0.02133 0.10431 0.084817 -0.013103 -0.0056894 0.10905 0.0012593 0.033624 -0.21615 0.061038 0.0002604 0.089001 0.27841 -0.13911 -0.036149 -0.25136 -0.1607 0.0129 0.11061 0.010434 -0.063202 0.10837 0.094521 0.044849 -0.033577 0.075415 -0.0055871 0.22274 -0.15431 -0.143 -0.16331 -0.37897 0.088815 -0.01611 0.17711 -0.10937 -0.043786 -0.091623 0.092745 -0.07847 -0.076786 0.24674 -0.065266 0.15455 -0.006005 -0.059465 -0.08342 0.030271 0.023901 0.043087 0.30138 0.085016 0.058277 -0.17407 -0.091761 0.27056 0.038272 0.044758 -0.20916 0.026829 -0.033874 -0.097277 0.13316 
it -0.073595 0.053776 -0.15387 0.11382 0.021287 0.028026 -0.051779 0.37609 -0.044647 0.17423 -0.047156 0.177 0.16445 0.27748 0.091483 -0.07292 -0.077063 0.054208 0.047065 -0.29284 0.04867 -0.053773 0.063071 -0.36872 0.078086 0.17715 0.20006 -0.25788 -0.22675 0.34181 -0.40774 0.024082 -0.0078608 0.28873 0.039896 -0.0011754 -0.044604 0.24383 -0.054923 0.28632 0.057712 0.19582 0.051437 0.15314 0.11872 -0.23709 -0.035142 -0.029356 0.1647 -0.21488 0.029396 0.3221 0.024216 0.17432 0.0059571 -0.057435 -0.0011381 0.040527 0.094038 0.052669 0.018294 0.11428 -0.075892 -0.073801 0.052323 -0.016262 0.0013307 0.051231 -0.068019 -0.079853 -0.0081854 0.23342 0.00013062 0.21594 -0.097903 0.053681 0.13183 0.049887 0.14823 -0.021604 0.1546 -0.084781 0.07889 -0.21254 0.1719 0.024628 -0.011707 0.13123 0.068355 -0.03127 -0.054282 0.10739 -0.03824 0.1035 -0.021003 0.059368 -0.1672 -0.043291 -0.19738 -0.23517 0.19567 0.085391 -0.091025 0.020394 -0.066923 -0.13811 -0.11896 -0.2314 0.045008 -0.021891 -0.038613 -0.068212 0.047838 0.098138 -0.021648 0.12544 -0.11896 0.080473 0.11627 -0.07302 0.051984 0.14325 0.12139 -0.010599 -0.12088 -0.22104 -0.16461 -0.19133 0.16355 0.019368 0.057787 -0.096045 0.019968 -0.15704 0.029219 -0.0039878 0.061215 -0.21644 -0.049253 0.11834 -0.027002 -0.0096411 -0.045117 0.1595 -0.075035 -0.074231 0.037681 -0.039641 -0.089596 0.0081153 -0.15281 -0.027913 0.24536 -0.0045531 0.013519 -0.12638 -0.061398 0.049161 0.048679 -0.16699 0.18208 -0.11731 -0.072737 0.18088 0.1774 0.044582 0.00065706 -0.051286 -0.015535 0.097036 -0.048193 0.0099522 -0.070023 0.13826 0.14297 -0.1216 0.063581 -0.020102 0.048027 -0.047476 -0.021103 0.025384 0.073473 0.10922 -0.1519 0.020635 -0.07061 0.079324 0.065981 -0.069145 0.052612 0.085376 0.012311 0.11679 -0.038573 -0.071316 -0.088909 -0.0068287 -0.022974 -0.023511 0.13884 -0.042379 -0.038824 0.061409 0.059966 0.058863 -0.10328 -0.0038564 0.025298 0.0028118 -0.027106 -0.14943 -0.039869 -0.073703 0.024369 0.052186 0.063954 0.080191 0.070269 -0.050357 0.01205 -0.24343 -0.046104 0.0052202 0.07911 0.033546 0.067536 0.076461 0.10927 0.10281 0.1164 0.20433 0.060617 0.060377 -0.10199 0.023476 -0.083079 -0.048255 0.060325 0.044235 -0.082159 0.050261 0.0038708 0.055787 -0.0029326 -0.15146 0.1818 0.029562 0.035674 0.12279 -0.080454 0.028616 -0.036579 -0.0039874 -0.067763 0.051207 -0.0086479 0.0045688 0.031576 0.035854 -0.033168 0.13387 0.053352 -0.011457 0.25464 -0.12616 -0.069388 -0.16293 -0.21819 0.14208 -0.04495 0.23114 0.10039 -0.071915 -0.14004 0.19094 -0.0096565 -0.095513 0.1677 -0.028013 0.080493 -0.0025721 -0.12898 -0.044662 0.041277 -0.002946 0.08748 0.38941 0.11749 0.060533 -0.13651 -0.035518 0.17374 -0.030344 -0.069114 -0.2353 0.033867 0.1256 -0.1939 0.129 
me -0.039229 0.14452 0.029738 -0.027403 0.13317 0.10713 0.039132 0.1571 -0.046792 0.20538 -0.023147 -0.03537 0.088678 0.17971 0.032928 0.1091 0.12502 0.098346 -0.0090957 -0.07984 -0.022608 -0.1781 0.095398 -0.34108 0.16961 0.075747 0.067337 -0.18616 0.00022902 0.12551 -0.017735 0.10428 -0.10524 0.14278 -0.10619 -0.1757 0.079926 0.052751 -0.24486 0.11431 0.068988 0.17486 0.093539 -0.033476 0.018904 0.026338 -0.10066 -0.074915 0.11609 -0.068088 -0.027427 0.13904 0.081833 -0.064001 -0.036777 -0.01179 0.17272 -0.10729 0.12853 -0.0027587 0.035727 0.033476 -0.11105 -0.060049 -0.086599 0.0038066 -0.15001 0.033655 -0.027803 0.10351 0.114 0.12736 -0.079392 0.11474 -0.18648 0.051506 0.13504 0.14721 -0.050124 -0.14962 0.1984 0.032767 0.049462 -0.14271 -0.021139 -0.053532 0.039885 0.16439 0.036099 0.052627 -0.23279 0.081768 -0.031266 0.048 -0.04662 0.11693 -0.13605 0.029337 -0.18874 -0.11043 0.29971 -0.057977 0.084375 -0.03363 -0.22042 -0.062652 -0.040187 -0.15673 0.13464 -0.019736 -0.01321 0.012213 -0.08135 0.0093167 -0.054644 -0.052723 -0.11532 0.048769 0.14349 -0.056769 0.081173 -0.078911 0.18293 0.18413 -0.18524 -0.21086 -0.18013 -0.094919 -0.0043648 -0.15258 0.11562 0.10636 0.047931 -0.05603 -0.31578 -0.1766 -0.027943 -0.31852 -0.013706 0.14771 -0.096079 -0.11656 -0.023108 0.37635 0.03151 0.053196 0.18238 -0.096946 -0.082068 0.05407 -0.13104 -0.027143 0.11943 -0.072888 -0.0083675 -0.0593 -0.076111 -0.024102 -0.012231 -0.083411 0.22539 0.06193 0.075073 0.13472 0.0036534 0.10273 -0.033473 0.10417 -0.25038 0.022544 -0.010028 0.064371 -0.016141 0.077938 0.093719 -0.057618 0.10494 0.20227 -0.011438 0.09228 0.0076841 -0.15666 0.12202 0.03375 -0.23942 -0.097591 -0.12729 -0.21734 0.014032 -0.091668 0.019619 0.051889 0.099138 0.096808 -0.068862 -0.097524 -0.058547 -0.090472 -7.5797e-05 0.015961 0.0061824 0.014652 0.090288 -0.054297 0.029031 0.024747 -0.018453 0.11898 0.093247 -0.082678 -0.19771 0.021652 0.087781 -0.021406 -0.06567 0.033104 0.16387 -0.077002 -0.02403 0.038242 0.04125 -0.011007 -0.13134 0.070607 0.089899 -0.02098 0.096297 -0.096026 -0.071986 0.17125 0.026901 0.195 -0.042404 -0.067702 -0.009256 -0.0050405 -0.026055 0.031479 0.2739 0.064113 -0.17948 0.26053 0.068863 -0.034113 0.073835 -0.18713 0.2372 0.059191 0.10631 0.034173 -0.27045 0.21188 -0.16566 -0.048517 -0.078618 -0.01937 0.030697 0.0073124 -0.096744 0.010748 0.15378 -0.067072 0.22372 0.071151 0.26228 -0.12079 -0.053089 -0.12276 -0.025271 0.2891 -0.070106 0.34826 0.31794 0.0075922 -0.32013 0.033803 -0.0069694 -0.1452 0.24458 -0.10641 0.066676 -0.052903 -0.089611 0.010481 0.031992 -0.023713 0.24217 0.45972 -0.052502 0.070645 -0.14649 0.10444 0.074529 -0.019605 -0.072579 -0.30338 -0.018873 0.17014 -0.14821 0.10918 
with -0.12112 0.026536 -0.11013 -0.085502 -0.14494 0.12847 -0.24327 0.13974 -0.066648 -0.034216 0.011768 0.15985 0.32044 0.1512 0.15461 0.03646 -0.18355 0.04395 -0.097417 -0.22191 -0.15694 -0.16337 0.18629 -0.18981 0.24828 0.19748 0.040611 -0.25834 -0.11473 0.27376 -0.51719 0.14957 0.079591 0.1062 0.25695 0.19458 0.077319 0.24458 -0.18631 0.2833 -0.089195 0.024952 -0.104 0.29627 0.029794 -0.27483 -0.11538 -0.026273 -0.0092534 -0.11913 0.068764 0.18353 -0.1104 -0.16285 0.18847 0.069148 0.092601 -0.067349 0.23555 -0.0061247 -0.05608 0.082314 0.05719 0.0027094 -0.082803 -0.079931 0.18043 0.018561 -0.047526 -0.11219 0.33433 0.12492 -0.059724 0.26396 -0.091513 0.064429 0.082796 -0.046926 -0.00036162 0.15167 0.10214 -0.051714 0.030071 -0.16874 -0.0064666 0.053681 0.0082747 0.088609 -0.062555 0.057012 0.022942 -0.17764 0.020092 -0.0029457 -0.094919 0.058734 0.0072918 0.057018 -0.026454 0.020304 -0.11779 -0.056627 -0.081778 -0.015691 -0.079578 -0.11467 0.017413 0.20657 -0.012745 -0.085371 0.041883 0.050006 -0.03044 0.017239 0.0033319 -0.011071 0.051071 -0.18231 -0.2168 0.030439 -0.0023334 -0.019605 -0.11888 0.081211 0.09399 0.13173 0.064811 0.087768 0.049162 0.041327 0.02312 -0.028488 0.14231 0.098703 0.0020887 0.035799 0.012404 0.12902 -0.022894 -0.13023 -0.057976 -0.082576 -0.052956 0.054459 0.030274 -0.024269 0.083234 0.14813 0.16526 0.11212 0.044783 0.0051595 0.14476 -0.079044 -0.041868 -0.13824 0.047966 -0.013434 -0.13592 -0.027688 0.024238 0.027236 -0.086917 -0.029001 -0.034896 0.018195 0.082184 0.15007 -0.076067 0.10485 -0.054363 0.099243 0.15856 0.048446 -0.081464 -0.011472 0.063795 0.0479 0.0032128 -0.0059678 -0.057303 0.041492 0.092591 -0.086899 -0.059843 -0.089368 -0.066753 -0.066908 -0.032252 -0.077731 -0.076434 0.032884 0.082901 -0.047448 -0.12039 -0.10917 -0.086757 0.14527 0.013018 0.046862 0.16774 0.12528 -0.0041361 -0.096066 0.10846 0.16151 -0.010325 -0.11213 0.039109 0.031989 -0.21911 0.15633 -0.068184 0.11636 -0.13227 -0.094257 -0.26808 0.0068706 0.20777 -0.062751 -0.063599 0.0073184 0.00064127 0.037159 -0.10836 0.0011707 0.10995 0.064059 0.03268 0.13829 0.024858 0.15099 -0.047529 -0.0036755 -0.014423 -0.14651 -0.095611 -0.11686 -0.0077845 -0.025652 -0.23697 0.10657 0.10955 -0.036306 -0.015746 -0.14627 0.078154 -0.10114 0.26455 0.12729 -0.3191 0.03658 -0.24581 -0.14811 -0.098027 -0.15806 -0.026882 -0.15418 0.13598 0.10233 0.01054 -0.11996 0.11428 0.041474 0.25316 -0.23749 -0.17053 0.018825 -0.042289 0.20524 -0.1069 0.26387 0.17939 0.12172 -0.024337 0.15698 0.037359 0.04617 0.16422 -0.00024242 0.074293 0.20118 -0.072602 0.036796 0.018334 -0.096838 0.18447 0.1791 0.014576 -0.0029906 -0.11756 -0.15523 0.14041 -0.00073613 -0.018202 -0.3115 -0.014059 -0.051248 -0.02962 0.021825 
will -0.086696 -0.014318 -0.26449 0.13069 -0.13228 -0.0050218 -0.11917 0.23338 -0.099533 0.025536 -0.065038 0.17227 0.26152 0.27624 -0.050368 -0.08429 -0.10818 0.084644 -0.10046 -0.41183 -0.043892 -0.022482 0.14086 -0.2065 -0.05368 0.30861 0.03638 -0.16324 -0.099809 0.32137 -0.43519 0.095593 0.20829 0.29373 0.16168 0.063287 -0.001909 0.30871 -0.0478 0.143 0.052107 0.16889 0.20788 0.21209 0.072726 -0.23665 0.080381 -0.17431 0.10474 -0.38353 0.11283 0.3751 0.016685 0.15701 -0.068372 -0.026679 0.064403 0.17785 0.14938 -0.005788 -0.034329 0.12745 0.0032421 -0.018871 0.10304 -0.088624 0.050565 0.059724 -0.011733 -0.12029 0.064511 0.2435 -0.06708 0.085374 0.12075 0.016577 -0.014689 -0.039402 0.060857 -0.037413 0.061903 -0.18362 0.0032509 -0.12031 0.018008 -0.0034042 -0.032887 -0.028404 -0.017875 0.0095697 0.022196 0.00017103 -0.042553 0.10983 0.15069 0.050693 -0.11731 -0.068824 -0.1009 -0.2083 -0.083747 -0.04244 -0.053874 -0.096763 0.023442 -0.013991 -0.042844 0.035521 0.20666 0.16055 0.15976 0.043518 0.10566 -0.055147 0.0082307 -0.083362 0.01825 0.17598 0.091996 -0.080686 -0.03689 -0.011473 0.089995 -0.11185 -0.072615 -0.066311 0.017839 -0.097401 -0.014878 -0.019635 0.13583 -0.012288 -0.030397 -0.056333 -0.013786 0.012546 0.04416 -0.15971 -0.014315 0.16369 0.048281 -0.11018 -0.12591 0.12168 -0.0026136 -0.069725 -0.021542 0.040158 -0.041221 -0.09387 -0.090029 -0.028781 0.218 0.12818 -0.027939 -0.17881 -0.13656 -0.021094 0.0739 -0.13438 0.29001 -0.045766 -0.098374 0.074394 0.10751 0.12666 0.10822 -0.0083553 0.12141 -0.0054145 -0.065335 -0.040234 0.02615 0.021523 0.0073168 -0.048688 0.079815 -0.16869 -0.0018295 -0.11347 0.056476 0.047544 -0.074263 0.11694 -0.14047 0.0036656 0.00016904 0.069751 0.049769 -0.016787 0.23195 -0.011491 0.016692 0.049081 -0.20085 -0.1727 -0.14781 0.12322 -0.17014 -0.060761 0.276 -0.0019206 -0.011916 0.077366 0.14588 0.050964 -0.05517 0.14869 0.040935 0.10864 0.0091459 0.060998 -0.042272 0.052427 -0.11511 0.078419 -0.036914 0.17645 0.21747 -0.095376 0.0022414 -0.25583 0.013212 -0.068434 -0.059443 0.018928 0.036843 0.067551 0.1611 0.10553 0.21024 0.16525 0.15333 -0.0036073 -0.078596 -0.043678 -0.07413 0.05403 0.024518 0.067941 0.053768 0.020677 0.089908 0.0072499 -0.0011284 -0.24469 0.029103 -0.030874 0.1653 0.30827 -0.21415 0.044909 -0.25024 -0.15412 -0.011459 0.032507 -0.081827 -0.046534 0.085454 0.11816 0.016915 -0.044809 -0.0045057 0.084219 0.29365 -0.066877 -0.057387 -0.17276 -0.30637 0.13002 -0.16278 0.2759 -0.036338 -0.007042 -0.077916 0.038716 -0.17053 -0.13339 0.28498 -0.036765 0.10121 0.071962 0.032944 -0.052615 0.032351 0.033333 0.092078 0.35547 0.12471 0.046517 -0.14582 -0.040156 0.23641 0.026977 -0.00065153 -0.18197 -0.013522 -0.0073807 -0.024634 0.019417 
away -0.018502 0.19319 0.22221 0.10987 0.037497 0.076039 0.013963 0.19945 -0.12447 0.041477 -0.032452 0.11361 0.012264 0.05948 0.20003 0.037468 0.14204 0.094402 0.054503 0.1196 0.074905 -0.077187 0.04253 -0.083928 0.22587 0.13848 0.092848 -0.050569 -0.17519 0.098029 -0.037469 0.0095358 -0.20746 -0.016402 0.021163 0.032929 -0.10464 0.14095 -0.25008 0.25373 -0.047346 0.007494 -0.1769 0.22334 0.14072 -0.18621 -0.2205 0.11841 -0.11655 -0.077206 -0.11615 0.20919 -0.18287 -0.067162 0.22331 0.24055 -0.078818 -0.080898 0.075593 0.13259 -0.034913 -0.040872 -0.18031 -0.26501 -0.073249 0.10952 0.11794 0.00060106 -0.0212 -0.10547 0.12352 0.18017 -0.12393 0.34121 -0.67946 0.0064956 0.25493 0.015099 -0.11664 -0.099915 -0.023638 0.070936 0.17607 -0.11734 0.13687 -0.20624 0.049846 0.066876 0.16393 0.10771 -0.20413 0.17627 0.10712 0.21913 -0.14667 0.38302 -0.21941 0.143 -0.21726 -0.066091 0.22647 -0.027128 -0.051053 -0.033649 -0.061356 -0.23838 0.071531 -0.2082 0.04723 0.0075984 0.074144 0.14116 -0.024996 0.23183 -0.22089 -0.07723 -0.21649 0.20906 0.086592 -0.14093 0.081292 -0.074935 0.32385 0.029596 -0.27256 -0.19025 0.092955 -0.29039 0.22813 -0.043396 0.099944 -0.30867 0.097441 0.040035 -0.22327 -0.014375 -0.062096 -0.60279 -0.019285 0.091308 -0.40403 0.025413 -0.15346 0.30067 0.057336 0.12675 0.12866 0.049956 -0.24553 0.11101 -0.085378 0.032517 0.11761 -0.089296 -0.051969 0.057215 -0.10486 0.043422 0.14835 -0.068703 0.33898 0.10205 -0.1762 0.26768 -0.051381 0.13764 -0.12566 0.18758 -0.20033 0.18709 0.02657 0.60049 -0.0065093 0.275 0.28409 -0.25644 0.2016 -0.034017 0.21083 0.083454 -0.075636 -0.035063 0.10993 0.013994 -0.31265 -0.057447 -0.29137 -0.015665 -0.13123 -0.27957 0.11375 -0.048251 0.015366 -0.026462 0.039553 -0.33672 0.0062116 0.15791 0.022419 -0.0035961 0.28641 0.05106 -0.015443 0.10393 0.1075 0.12536 -0.015611 -0.21777 0.066981 -0.085014 -0.16776 -0.095954 -0.10482 0.059663 -0.08869 -0.11473 -0.089707 -0.055123 0.09141 -0.071864 0.07198 0.080426 0.017532 -0.030138 -0.024787 -0.017706 0.17998 0.11847 0.069971 0.19772 0.11333 0.21025 -0.12272 0.10964 -0.016801 -0.092605 0.099991 -0.15042 0.22868 -0.10078 -0.18981 0.28385 -0.11521 0.021872 0.0094441 -0.011429 0.28175 -0.109 -0.042312 0.093441 -0.25418 0.01504 -0.15984 0.10332 -0.16871 -0.084761 -0.018792 -0.26646 -0.033979 0.13572 0.11442 -0.010699 0.26872 -0.008204 0.36937 -0.27582 -0.28879 -0.10848 0.052268 0.10474 0.0672 0.19621 0.21335 0.064944 -0.17877 0.25396 0.038385 0.057122 0.16203 -0.017784 0.10077 -0.016311 -0.081893 0.14485 -0.060002 0.12742 0.17156 0.043704 0.028714 0.097079 -0.19008 -0.022613 0.090559 0.028814 -0.098903 -0.37724 -0.066596 0.21919 -0.12774 -0.030418 
route -0.30806 -0.047809 0.1908 -0.03723 -0.010517 0.017119 -0.025305 0.11874 0.010521 -0.019068 0.034256 0.18901 0.095749 0.17461 0.1123 0.24171 0.086046 0.15591 0.02345 -0.16691 -0.0039266 -0.16104 0.2182 -0.2354 0.36326 -0.0011444 0.031407 -0.25398 -0.054083 0.24902 -0.12505 0.016978 0.0031044 0.003655 -0.03864 0.0033035 0.048744 -0.025802 -0.29674 0.084678 0.073845 -0.010212 -0.11406 0.080451 0.12411 -0.005228 -0.23836 0.063795 -0.15954 -0.043141 -0.036822 -0.048237 -0.22253 -0.066912 0.23492 0.2007 0.17593 -0.12234 0.22594 0.26033 -0.047054 0.027999 0.048471 -0.1689 -0.25151 0.14451 0.17648 0.058957 0.075934 -0.10703 0.037655 0.14509 -0.093758 0.16909 -0.42878 -0.089041 0.3084 0.076845 -0.18951 -0.062945 -0.043848 0.28558 0.2213 -0.1793 0.025859 -0.22599 0.055956 -0.025141 0.071209 0.201 -0.20181 0.15271 0.16644 0.069689 0.018962 0.36632 -0.25904 -0.012649 -0.11382 -0.087076 0.099733 0.097782 0.14935 -0.056585 5.426e-05 -0.030761 0.17655 -0.019942 0.054264 0.080522 0.174 0.19167 0.07217 0.1627 -0.15226 -0.37018 -0.087578 0.25395 0.028268 -0.3205 -0.085054 -0.01534 0.28307 -0.04612 -0.32649 -0.30345 -0.13468 -0.27401 0.029256 -0.1216 -0.095362 -0.12378 0.13221 0.026022 -0.22006 -0.022248 -0.08578 -0.50644 0.053147 0.11858 -0.30791 0.062626 0.0054693 0.16594 0.15958 -0.0063217 0.21882 0.052737 -0.1898 -0.084582 -0.14344 0.02422 -0.026637 -0.022622 -0.31246 0.079265 -0.088358 0.025746 0.025153 0.12068 0.41409 0.2609 0.093842 0.20973 -0.21176 0.15526 -0.11432 0.2177 -0.12315 -0.11975 0.17384 0.48366 -0.097191 0.13954 0.15943 -0.14054 0.15807 0.056834 0.13906 0.19343 -0.023127 0.067901 0.02003 -0.104 -0.29389 0.051171 -0.21502 -0.069307 -0.12531 0.0064443 0.060186 -0.061676 0.041262 0.064417 0.062878 -0.19985 0.072667 0.14113 0.1641 -0.021881 0.3821 -0.044863 0.079199 0.094918 0.14636 0.10794 -0.050891 -0.19642 0.079371 -0.076045 -0.32481 0.053978 -0.16236 0.0016202 -0.061327 0.022502 -0.15372 -0.10132 0.052719 0.047783 0.14222 -0.034053 0.04796 0.047236 0.015111 -0.019865 0.25153 0.11659 -0.1518 0.29504 -0.06094 0.31458 -0.18442 -0.12528 0.055073 -0.29815 -0.16469 0.01566 0.23111 0.10762 -0.22719 0.28649 -0.089788 -0.066678 -0.17155 -0.023744 0.1387 -0.090476 0.0086033 0.09306 -0.19775 0.19076 -0.16051 0.14465 -0.19021 -0.058721 -0.20785 -0.26362 -0.23614 0.075339 0.26162 -0.099308 0.14106 0.10681 0.2231 -0.13095 -0.1181 -0.092635 0.18484 0.01279 -0.07165 0.25473 0.26326 0.07489 -0.32213 0.27007 0.078885 -0.020861 0.015823 -0.08373 -0.041066 -0.033272 -0.11896 0.015228 -0.035899 0.063021 -0.14151 0.14555 0.00046865 0.087972 -0.099392 -0.085474 0.046325 -0.16399 -0.20455 -0.24359 -0.031966 0.19724 -0.0093109 -0.019125 
please -0.14831 -0.023323 -0.025872 -0.027879 0.042704 0.065808 -0.1417 0.25605 0.0079964 0.17897 -0.024854 0.16191 0.16873 0.26244 -0.0058957 0.11243 -0.015992 0.098907 0.032117 -0.17669 -0.034483 -0.12068 0.10803 -0.34355 0.1982 0.0083437 0.1013 -0.25471 -0.081557 0.1765 -0.11071 0.00093285 -0.041901 0.20181 -0.0064436 -0.12439 0.079686 0.087304 -0.12392 0.13943 0.10053 0.13901 0.095748 0.10293 0.036187 0.012163 -0.12722 -0.019239 0.15444 -0.077242 0.063599 0.11769 0.019397 0.038318 -0.01977 0.060311 0.0653 -0.1723 0.16659 0.078426 -0.046121 0.035297 -0.087827 -0.15084 -0.14927 0.077091 0.0016654 0.082588 -0.074056 0.026817 0.14344 0.127 -0.055686 0.10739 -0.17197 0.046682 0.16862 0.11117 -0.00014021 -0.097128 0.16189 0.08811 0.14716 -0.1711 0.033273 0.008593 0.018977 0.12214 0.035277 0.054272 -0.16031 -0.031175 -0.011703 0.013103 -0.011575 0.21046 -0.27843 0.011631 -0.14916 -0.12815 0.18053 0.039146 0.046106 0.046016 -0.14358 0.019051 -0.027899 -0.1418 0.1301 -0.074805 0.086223 0.014019 -0.0474 -0.022161 0.0080307 -0.11095 -0.16723 0.094305 0.092533 -0.083717 0.023229 -0.0080106 0.033869 0.075407 -0.16737 -0.25733 -0.16635 -0.10578 0.01306 -0.10307 -0.043496 0.070344 0.051861 -0.040414 -0.13695 -0.067641 0.033007 -0.23855 -0.019608 0.13071 -0.13675 -0.064139 0.033781 0.28174 0.00052856 -0.019196 0.22056 -0.097579 -0.030688 -0.04293 -0.15614 0.0096377 0.075009 -0.032068 -0.099576 -0.15258 -0.060119 0.00093476 -0.074164 -0.027072 0.26747 0.043162 0.055639 0.19545 -0.0095871 0.12039 -0.10334 0.087642 -0.12637 -0.01028 -0.00092929 0.12064 -0.10987 0.01573 0.087602 -0.065809 0.045669 0.18156 0.0031249 0.081365 -0.025653 -0.0077297 0.14423 -0.011884 -0.24481 -0.0034409 -0.068008 0.015465 0.027543 -0.035167 0.019659 0.078514 0.07197 0.048816 -0.0091459 -0.025076 -0.06882 -0.053093 0.054634 -0.082846 0.11517 -0.11016 0.072318 -0.06271 0.085886 0.042686 -0.067958 0.053741 0.030493 -0.083884 -0.23039 -0.0068465 -0.04541 -0.072655 -0.10693 0.071239 -0.0072041 0.046418 0.13151 0.025328 0.036048 -0.10993 -0.11461 0.046294 0.095517 -0.030125 0.12977 -0.0089621 -0.0048673 0.1234 -0.036151 0.23135 -0.094336 -0.07782 0.010581 -0.01466 -0.1561 0.069635 0.090901 0.056517 -0.12534 0.15545 0.045296 0.044791 0.0014424 -0.26919 0.10393 0.04763 0.13724 0.10301 -0.18916 0.17779 -0.1101 0.026468 -0.10102 -0.0084782 -0.018908 0.061596 -0.055752 -0.056435 0.015829 0.019241 0.089712 0.063448 0.21568 -0.077197 -0.031444 -0.15129 -0.052142 0.16222 -0.13583 0.31978 0.3067 0.015799 -0.26125 0.076214 0.00075263 -0.13019 0.11851 -0.10105 0.055978 -0.050167 -0.055805 -0.013088 -0.020196 -0.084848 0.061997 0.37614 0.018767 0.049776 -0.081589 -0.02284 0.12727 -0.057833 -0.065048 -0.22756 0.012457 0.19752 -0.16291 0.1286 
weather -0.073753 0.066944 -0.23277 0.07998 0.11619 0.092155 -0.14081 0.13652 -0.11341 0.17097 -0.045008 -0.0031795 0.017808 0.13757 -0.14789 0.014597 -0.028541 -0.20914 -0.020062 -0.13252 -0.0025875 0.075263 -0.24836 -0.19921 -0.20236 0.030136 0.13533 0.047271 -0.075683 0.094567 -0.1169 0.10886 0.045661 0.3 0.037928 -0.0027559 -0.0012234 0.2228 0.11676 -0.048413 0.056936 0.17791 0.42335 0.035329 0.015858 -0.33706 0.14534 -0.26083 0.22798 -0.22884 -0.061474 0.44368 0.026027 0.31465 -0.17722 -0.23213 0.026223 0.13987 0.16299 0.028154 0.066428 0.1518 -0.058187 0.14372 0.12665 -0.12153 0.0917 0.40933 0.016386 -0.16601 0.30399 0.43007 -0.2242 0.32767 -0.0033694 0.37058 0.24573 0.20322 0.0030485 0.0071694 0.22136 0.10416 0.13401 -0.3398 0.073254 -0.047572 -0.15399 0.13818 -0.06974 -0.21329 -0.054245 -0.085016 -0.13713 0.25793 0.19856 -0.063656 -0.36243 -0.016682 -0.067998 -0.18052 0.2673 0.062779 -0.083679 -0.15174 -0.23878 -0.014846 -0.14273 -0.23193 0.24675 0.26276 0.29825 0.04384 0.11561 -0.071998 0.050355 -0.15691 -0.13154 0.36691 0.22314 -0.1194 -0.21249 -0.24969 0.39362 0.10258 -0.25248 -0.1814 -0.25492 -0.19551 -0.13607 -0.2584 0.50344 -0.13194 -0.17467 -0.29928 -0.21802 0.012736 0.12555 -0.64944 0.1073 0.012496 0.069915 -0.026732 -0.1707 0.51178 0.072647 -0.25465 -0.026198 0.11165 -0.12741 -0.12578 -0.25914 0.03727 0.13511 0.087711 0.093157 -0.15649 -0.025176 -0.014563 -0.064831 -0.25563 0.53288 -0.1281 -0.19939 0.31722 0.33511 0.11017 0.040099 -0.18719 -0.027306 0.030959 -0.094018 -0.0086778 0.046356 0.24128 0.21059 -0.10122 -0.029688 -0.018767 0.15237 -0.0020472 0.0040396 -0.06834 0.029479 0.31633 -0.36636 0.15719 -0.095546 0.098091 0.054822 -0.1781 0.62635 -0.043178 0.083756 0.067198 -0.20136 -0.29492 -0.16492 0.1603 -0.11149 -0.23162 0.4791 -0.13903 0.076535 0.02755 0.29169 0.11151 0.096194 0.16174 0.21078 -0.044955 -0.0057432 -0.17125 -0.068883 0.12489 -0.13898 0.34232 -0.20946 0.2571 0.36392 -0.11214 -0.097514 -0.27514 0.044946 -0.011182 0.0094248 -0.11257 0.38646 -0.0053284 0.13157 0.3097 0.23405 0.49255 -0.005387 -0.01353 -0.11012 -0.13638 -0.16673 0.15897 0.01934 0.15919 -0.021543 0.061969 -0.014752 0.0081379 0.18721 -0.3911 -0.040768 0.12509 0.32703 0.24333 -0.066907 0.12978 -0.23614 -0.1954 -0.016572 0.11272 0.10016 -0.0015835 0.070147 0.13271 0.096284 -0.24593 -0.019434 0.1153 0.26633 0.024463 -0.00122 -0.32089 -0.12807 0.047048 -0.11926 0.30362 0.028732 -0.16004 -0.13552 -0.014541 -0.28336 0.001217 0.17052 -0.066451 0.24539 -0.12516 -0.036108 -0.022444 -0.027083 -0.10982 0.086418 0.26013 0.062892 0.15354 0.095731 -0.028324 0.27856 -0.028787 -0.036395 -0.13251 0.16717 0.0867 -0.1253 0.11735 
are 0.072308 0.0070469 -0.055409 0.075788 0.021278 0.19451 -0.097195 0.34511 -0.12179 0.13004 0.05913 0.038675 0.1916 0.3195 0.078241 -0.19613 -0.19393 -0.17375 -0.14971 -0.088081 -0.19658 0.14198 -0.063556 -0.24845 0.066167 0.081653 0.24108 0.12827 -0.089503 0.041498 0.020002 0.16437 -0.1055 -0.035495 -0.084069 -0.093023 -0.10193 0.24293 -0.2207 0.11525 0.15257 0.037595 0.27181 0.079433 0.010048 -0.12095 -0.12253 -0.041475 0.085021 -0.12663 -0.030973 0.48038 -0.085684 0.11184 0.0084193 -0.099342 -0.19388 0.08501 0.25651 0.04194 -0.13092 0.31535 -0.032393 -0.18019 0.020947 -0.1501 -0.14447 0.10524 0.17865 -0.0092982 -0.017839 0.082903 -0.14622 0.10871 -0.24888 -0.012723 0.10701 0.25126 0.047001 -0.15879 0.10436 0.082833 0.18874 -0.053523 0.14077 0.047006 -0.12063 0.059191 -0.047578 -0.13047 -0.13785 -0.11738 -0.10745 -0.076213 -0.16254 -0.2506 -0.13393 0.094601 -0.05154 -0.083994 0.28076 0.093466 -0.043547 -0.14947 0.0070904 -0.14914 0.061839 -0.089823 -0.083274 0.10087 0.14093 -0.12271 -0.09038 0.0075157 -0.079669 0.1749 -0.15395 0.094806 0.048238 0.014762 0.020206 0.023733 0.41084 0.10763 -0.24919 -0.058914 0.051235 -0.12909 0.15919 -0.17378 0.5263 -0.19453 -0.080908 -0.0010489 -0.13778 -0.13846 -0.098664 -0.18963 0.033482 0.16396 -0.16685 -0.0023847 -0.24221 0.24737 -0.11493 -0.075108 0.05462 0.13203 -0.34248 0.056448 -0.17076 0.098138 0.18079 -0.01931 0.058103 -0.018761 -0.089425 -0.14262 0.17669 -0.10095 -0.1027 0.048742 0.04985 0.26686 0.2591 -0.043829 0.033695 -0.1434 -0.1721 0.12969 -0.066534 0.23476 -0.048222 0.11044 0.12601 -0.19293 -0.060567 0.0035533 0.091986 0.22418 0.13617 -0.15794 0.042084 0.074728 -0.12083 -0.10126 -0.16617 -0.049516 0.036489 -0.29182 0.1254 0.087446 0.010681 -0.098917 0.067209 -0.34928 -0.019526 -0.050845 -0.016537 -0.09164 0.19012 0.06619 0.1019 -0.21101 -0.0068419 0.096213 -0.039885 -0.1371 0.15394 -0.023453 0.063898 -0.21675 0.18233 0.018283 -0.039638 0.010481 0.020681 -0.042083 0.12647 -0.073298 -0.11451 0.18508 -0.12152 0.18921 -0.079439 -0.15221 0.14596 -0.0043213 -0.039049 0.056665 0.16021 0.1076 0.065879 0.009133 -0.10891 0.14419 0.29282 0.061644 0.04376 -0.040015 -0.13983 0.076565 0.047971 -0.025141 0.31442 -0.1516 0.2041 0.080738 0.21197 0.15339 0.099221 -0.16987 -0.26001 -0.11915 -0.098708 0.20802 0.17408 -0.13865 0.21196 0.045903 0.18102 0.11432 0.076697 0.22535 0.065846 -0.22675 -0.042375 -0.054197 -0.11039 0.031836 0.0013823 0.24596 0.25129 -0.29408 -0.17493 0.17257 0.055402 -0.11687 0.305 -0.044132 0.31938 -0.055967 -0.085791 -0.013282 -0.036294 0.03915 0.16896 0.19136 0.050528 0.066898 -0.097793 0.20841 -0.0033518 -0.026184 0.14136 -0.37628 0.047402 0.3076 -0.098795 0.13075 
your -0.12023 -0.025746 -0.10981 -0.025707 -0.094647 0.12104 -0.17902 0.14442 0.073964 0.14481 0.11795 0.086361 0.20886 0.1761 0.046296 -0.041538 -0.20535 0.045066 0.11101 -0.29438 -0.076854 0.056259 -0.023659 0.0042332 0.14253 0.11992 0.015211 -0.23576 -0.048244 0.12499 -0.47923 0.18175 0.11971 0.1157 0.032576 0.014298 0.15667 0.08895 -0.1507 0.25689 -0.0034287 0.13297 0.073899 0.14389 0.033285 -0.089009 -0.17601 -0.055272 -0.069773 -0.045315 -0.18029 0.17643 -0.37145 -0.037126 -0.017319 -0.16813 0.20666 0.20556 0.27331 0.056887 -0.0058155 0.17073 0.24964 0.089883 -0.26636 -0.035568 0.18419 -0.026411 -0.043574 -0.063932 0.13163 0.010876 -0.0023983 0.15254 0.015754 -0.068122 0.25007 -0.012501 0.12771 0.15827 -0.062967 0.059005 0.25051 -0.1637 0.089406 0.0052076 0.1357 0.063491 -0.15417 0.069614 0.033484 0.11853 0.12693 -0.10016 -0.068933 -0.19799 -0.086832 0.13803 0.12175 0.017947 -0.17049 0.0062816 0.071436 -0.14029 0.051128 -0.10728 -0.14099 0.10526 0.044102 0.023512 -0.12408 -0.14472 0.0071614 0.020828 -0.099735 0.014467 0.080874 0.013282 -0.10675 0.018277 -0.043467 0.035766 0.08889 0.031454 -0.11488 0.032893 -0.16355 -0.10485 0.18637 -0.036255 0.10569 0.036286 -0.028969 -0.1054 -0.01422 -0.12265 -0.099708 0.045643 -0.060731 -0.067073 -0.23882 0.036933 -0.12045 0.23034 0.0032777 -0.018454 0.24242 0.043493 -0.081247 0.10527 -0.099306 -0.18679 0.13319 -0.016164 -0.043675 -0.018724 -0.21894 0.06666 0.28841 -0.1728 -0.047373 0.050124 0.15361 0.070538 0.027925 0.18139 -0.059351 -0.037835 -0.1716 0.15071 -0.17177 0.2922 0.27552 0.015954 0.060282 -0.028803 0.11228 0.029954 0.049324 0.068556 0.052106 -0.017209 0.15939 -0.14193 -0.024675 -0.087211 -0.021937 -0.39655 -0.091105 0.13793 -0.084915 0.051444 0.21401 0.038993 0.044146 -0.12293 -0.2004 0.0012757 0.12053 0.31014 0.053748 0.086733 -0.072122 0.098716 -0.023592 0.11068 -0.16884 -0.20559 0.17223 0.11427 -0.26556 0.19621 0.035459 0.008143 -0.18052 -0.086349 -0.25778 -0.0039245 -0.0074559 0.16687 -0.033108 0.061765 -0.094684 0.010464 -0.009257 0.09145 0.24124 -0.20116 -0.15898 0.19292 -0.026863 0.22447 -0.20527 -0.094197 -0.023833 -0.30121 -0.27042 0.025541 0.12827 0.16553 -0.49454 0.10737 0.19433 -0.11574 0.026149 0.021157 0.0089823 -0.1871 0.16881 0.041016 -0.10038 -0.02586 -0.21091 -0.088008 -0.11175 -0.056229 -0.0022491 -0.31105 -0.21333 0.0078081 0.27636 -0.10676 0.28921 0.18166 -0.040032 -0.1689 -0.25962 -0.13216 -0.032871 0.29392 -0.012586 0.17175 0.30276 -0.10879 0.031643 0.22416 0.26876 -0.080269 0.087511 0.10216 0.0060152 0.29512 -0.16873 -0.24057 0.10581 -0.18693 0.015235 0.57587 0.011705 -0.0062252 0.013693 -0.17944 0.1632 -0.20243 0.095439 -0.40665 -0.049742 0.093071 -0.082733 0.16249 
like 0.00026332 0.10321 -0.030596 0.081484 0.19328 0.013499 -0.098113 0.20155 0.018367 0.27266 -0.047301 0.077525 0.011673 0.12559 -0.044593 -0.01636 -0.080405 0.0028745 -0.023588 0.068639 0.060052 -0.041841 -0.068063 -0.14838 0.049214 0.012025 0.11584 -0.12352 -0.1634 0.062625 -0.10874 0.16342 -0.10227 0.2196 0.03074 -0.10839 -0.028973 0.11367 0.042588 0.035034 0.033049 0.20056 0.19038 0.045174 0.018024 0.046474 -0.12332 -0.097959 0.21013 -0.12531 0.021943 0.27747 0.0032703 0.099034 0.0018941 -0.094542 -0.060192 0.043196 0.19012 0.037389 -0.036753 0.1052 -0.13848 -0.050745 -0.016117 -0.018748 0.030767 0.14334 -0.10149 -0.10614 0.11034 0.29001 -0.1916 0.21701 -0.17518 0.067503 0.15728 0.12882 0.07228 -0.054168 0.25631 0.18826 0.10229 -0.2057 0.14588 0.11465 -0.079362 0.14082 -0.096659 -0.064639 -0.077291 -0.047735 -0.22293 0.061954 0.030333 -0.00066901 -0.20353 -0.014038 -0.1514 -0.26143 0.24279 0.015267 0.015502 0.094294 -0.1634 0.016863 -0.050993 -0.22057 0.028815 -0.045396 0.047344 -0.094674 0.029427 0.037337 -0.016735 -0.072688 -0.020354 0.16782 0.15391 -0.065414 -0.051495 -0.053457 0.13038 0.055582 -0.027972 -0.20747 -0.18927 -0.11609 0.042516 -0.19185 0.058202 0.058556 -0.085633 -0.11579 -0.10855 -0.039774 0.030316 -0.15805 -0.015286 0.044079 -0.13081 -0.073783 0.012802 0.2646 -0.1088 -0.13479 0.097683 0.015409 -0.0024225 0.013919 -0.10203 0.060721 0.14823 0.04869 0.033303 -0.12139 0.023237 0.048388 -0.028356 -0.11134 0.21307 -0.007794 0.041666 0.18209 0.24842 -0.07565 -0.083808 -0.063031 -0.028007 -0.018416 -0.11795 0.056866 -0.062837 0.16651 0.065161 -0.02934 -0.17962 0.14088 -0.024306 0.049665 0.033738 -0.0319 0.063967 0.086464 -0.14243 0.045828 -0.04679 0.11814 -0.06307 -0.10221 0.10718 -0.029758 0.12181 0.081296 -0.11276 -0.068717 -0.19003 -0.021772 0.057013 -0.093432 0.40227 -0.10061 0.064835 -0.15232 0.2005 0.036251 -0.099975 -0.029821 0.11318 0.066862 -0.12552 -0.18086 -0.026577 0.027992 -0.1974 0.14475 -0.13705 0.071912 0.27372 0.013081 0.057754 -0.20949 -0.10488 0.11194 0.033253 0.001674 0.38649 0.11005 0.038747 0.20697 0.0895 0.43395 -0.040976 -0.01229 -0.12468 -0.013512 -0.20977 0.055344 0.067139 0.12478 -0.17124 0.073842 0.059523 0.033533 0.11907 -0.31043 0.12053 0.14224 0.26251 0.20449 -0.1733 0.088289 -0.20386 -0.15781 -0.11907 0.010177 0.10239 -0.077809 0.12943 -0.016644 0.045099 0.075487 0.10022 0.043042 0.28885 -0.119 -0.08 -0.24543 -0.050042 0.20047 -0.055647 0.39856 0.29401 -0.10273 -0.24885 0.19443 -0.10998 0.013135 0.18543 -0.10167 0.2614 -0.085136 -0.16163 0.023658 0.031342 -0.14385 0.10958 0.45572 0.042778 0.041149 0.012633 -0.15293 0.20017 -0.096669 -0.099149 -0.2978 0.080525 0.33561 -0.13551 0.22213 
address -0.14667 0.11718 0.18007 -0.054036 0.081238 0.026102 -0.013176 0.10299 0.012897 0.11497 -0.007869 0.041674 -0.078828 -0.010961 0.09653 0.19562 0.16462 0.087446 0.067489 0.07457 0.014503 -0.17276 0.059338 -0.15321 0.24538 -0.058869 0.058679 -0.2278 -0.080228 -0.053654 -0.12495 0.11626 -0.16863 -0.0095283 -0.10332 -0.010268 0.037412 -0.030703 -0.29785 0.11766 -0.0026357 -0.0073629 -0.030347 0.0025434 0.070117 -0.015166 -0.30146 0.062728 -0.083648 0.045814 -0.24154 0.064426 -0.25346 -0.14698 0.13904 0.08502 0.32475 -0.060432 0.25209 0.15956 -0.095103 -0.084569 0.035256 -0.12069 -0.30255 0.10954 0.21024 0.072403 0.001539 -0.12606 0.22174 0.1883 -0.13842 0.28794 -0.51446 0.089591 0.42629 0.13771 -0.12272 -0.062345 0.038607 0.25048 0.2682 -0.09083 0.11136 -0.2491 0.037788 0.1196 0.039 0.14928 -0.18735 0.11626 0.048739 0.10129 -0.095428 0.2129 -0.2909 0.014997 -0.070344 -0.023916 0.16134 0.044635 0.11625 0.0052216 -0.12839 -0.042417 0.021704 -0.1415 0.023965 -0.034233 -0.12805 0.074521 -0.014349 0.14417 -0.22085 -0.33371 -0.14716 0.20182 0.08423 -0.15175 -0.022908 -0.1645 0.39427 -0.049869 -0.27933 -0.32166 -0.19502 -0.32174 0.052701 -0.14617 0.18739 -0.020235 -0.00067714 -0.02118 -0.34497 -0.095211 -0.12314 -0.61027 0.083975 0.024863 -0.38917 0.035321 -0.10542 0.31834 0.082025 0.066564 0.31539 -0.023134 -0.10457 0.004325 -0.070328 -0.059218 0.058156 -0.070328 -0.11702 0.030618 -0.085875 0.050879 0.11934 -0.037936 0.28531 0.15868 0.089415 0.2628 -0.11979 0.1322 -0.15282 0.17548 -0.3721 0.13414 0.080243 0.56481 0.021972 0.22556 0.23088 -0.17232 0.20362 0.14362 0.13829 0.21902 -0.02567 0.057152 0.17703 -0.12556 -0.41075 -0.05865 -0.31332 -0.35057 -0.21321 -0.096226 0.019185 -0.031647 0.055963 -0.016696 -0.032908 -0.26175 -0.013715 0.0083585 0.1175 0.19209 0.10079 0.03377 0.13661 0.071524 -0.028758 0.10681 -0.080068 -0.14661 0.05459 -0.041414 -0.338 0.012814 -0.079012 0.090789 -0.095059 -0.00136 -0.13015 -0.17682 0.0035099 0.056935 0.12542 0.0067506 0.0075594 -0.0061533 0.032028 0.030101 0.34286 -0.024799 -0.24557 0.30386 -0.094958 0.23258 -0.25488 -0.072483 0.070353 -0.18867 -0.059341 0.007686 0.22163 0.062296 -0.34913 0.34028 -0.14403 -0.033052 0.056024 0.017354 0.27282 -0.10364 0.011855 0.0042939 -0.26167 0.17999 -0.12249 0.066055 -0.19277 -0.033444 -0.042296 -0.15642 -0.18533 -0.012869 0.15669 -0.16106 0.27464 0.029598 0.10223 -0.11137 -0.15154 -0.13589 0.093817 0.18784 0.060639 0.153 0.4295 0.003312 -0.28491 0.23542 0.042402 0.030495 -0.033909 -0.092421 0.066586 -0.075918 -0.2073 0.056404 0.036093 -0.011952 0.080247 0.1453 -0.07606 0.021644 -0.0097172 -0.10662 0.042248 -0.16061 -0.21023 -0.4357 0.0061001 0.15705 -0.18126 0.084081 
welcome 0.054934 -0.11409 -0.066591 -0.072316 -0.058845 -0.012065 -0.10178 -0.010285 -0.094498 -0.0772 0.14441 0.081419 0.21875 0.19756 0.023572 -0.020924 -0.19471 0.059431 -0.014788 -0.36301 -0.17567 0.081225 0.061931 0.04022 0.028157 -0.034224 -0.066703 -0.017065 0.14992 0.078113 -0.17411 -0.13543 0.24156 -0.036316 -0.021562 0.043622 0.16028 -0.057109 -0.16642 0.11075 0.047639 -0.10519 0.063999 0.11974 -0.013854 -0.16884 -0.080788 -0.022974 -0.18184 -0.014834 -0.077714 0.051537 -0.24521 0.15364 -0.036602 -0.11635 0.11437 0.14445 0.1598 0.090032 -0.12849 0.12667 0.27606 -0.051252 -0.024081 -0.086625 -0.046919 -0.11374 0.14365 0.057547 -0.12451 -0.23617 0.092601 -0.13156 0.23909 -0.1531 0.064417 0.021996 -0.094485 -0.015536 -0.23857 0.084583 0.12261 0.0052747 -0.12996 -0.055881 0.050675 -0.048517 -0.12408 -0.0062268 0.14957 0.022241 0.25384 -0.16948 -0.010067 -0.21631 -0.083203 0.17096 0.13235 0.18627 -0.20351 0.12666 0.092752 -0.18701 0.20002 -0.0055373 0.025003 0.14359 -0.026739 0.27234 0.3184 -0.079292 0.0032166 -0.096802 -0.11053 -0.14434 -0.10849 0.20005 -0.19639 -0.23607 -0.083069 -0.096881 0.4555 0.12053 -0.32673 -0.22064 -0.11245 -0.4302 -0.026926 -0.19242 0.45275 -0.34891 0.061865 -0.1863 -0.19057 0.0021519 -0.20149 -0.50843 0.071878 0.11604 -0.16453 0.11008 -0.19255 0.39406 0.17461 -0.12212 0.15147 0.206 -0.27935 -0.18031 -0.13639 -0.027279 -0.08097 0.082369 -0.29048 -0.026723 -0.1859 -0.16389 0.10326 -0.018096 0.15768 0.18676 0.10081 0.12816 -0.09974 0.18974 0.016331 -0.0052878 -0.2381 0.068673 0.034784 0.35298 0.35605 -0.087675 0.15244 -0.24836 0.18031 0.00076221 0.21457 0.16357 0.081893 -0.078991 0.0282 -0.076449 -0.15098 0.072046 0.0093375 -0.30097 0.097713 0.0071693 0.34035 0.02406 0.19664 -0.07745 0.067114 -0.30007 0.035642 0.13955 -0.000764 -0.079162 0.27294 0.090887 -0.10227 -0.0096897 0.012611 0.11087 0.028179 -0.17622 0.19794 -0.046562 -0.13707 0.13432 0.067526 0.098135 -0.056335 0.03611 -0.28324 0.13066 0.11429 0.12413 -0.090394 0.17547 -0.039482 0.080396 -0.16991 -0.062036 0.015428 -0.21277 -0.11769 0.1943 -0.016128 0.070698 -0.07574 -0.12002 0.018212 -0.27242 -0.11472 0.17021 0.0036747 0.19845 -0.19161 -0.066369 0.18283 -0.23363 -0.03577 -0.137 -0.23738 -0.071795 0.23161 0.080207 0.19608 -0.16694 -0.33837 -0.074401 0.019545 0.054501 -0.15745 -0.31139 -0.1313 0.146 0.35553 -0.13568 -0.016384 0.18306 -0.18038 -0.14733 -0.1741 0.076322 -0.0085409 -0.065807 -0.16842 0.094821 0.079293 -0.1806 -0.11623 0.10739 0.27332 -0.19689 0.10052 0.085058 -0.062144 0.15707 0.066807 -0.25433 -0.0070702 -0.038605 -0.1347 0.18407 0.14919 0.082291 -0.042288 0.090365 0.075062 -0.098009 0.2155 -0.11527 0.052948 -0.057215 0.10241 -0.0077002 
my -0.066316 -0.039151 -0.12414 -0.037734 -0.21324 0.16572 -0.13007 0.17553 -0.04435 0.099219 0.057537 -0.11599 0.18285 0.2057 0.060888 0.069315 -0.12287 9.5893e-05 0.001402 -0.2679 -0.13228 -0.072391 0.11595 -0.13199 0.10765 0.33223 -0.0053973 -0.2539 -0.09764 0.028172 -0.37914 0.19643 -0.083766 0.12342 0.089276 -0.11792 0.10332 0.12065 -0.30152 0.073091 0.0075415 0.13579 0.18275 0.10586 -0.0035567 0.06716 0.040934 -0.10837 0.069029 -0.055373 -0.045729 0.056432 -0.12689 -0.20369 -0.13545 -0.20338 0.2934 0.084318 0.14786 -0.056341 0.079424 -0.016454 0.14158 0.13024 -0.11994 -0.11144 0.092481 -0.041546 -0.089398 0.10215 0.21673 0.13925 0.061752 -0.0094652 -0.065171 0.0079943 0.043985 0.088368 0.012246 0.074177 -0.01983 -0.17487 0.11876 -0.011219 0.21144 -0.058585 0.012662 0.22308 -0.035652 0.015153 -0.075458 0.059264 -0.011167 0.14256 0.09709 -0.12271 -0.065725 0.071474 0.14742 0.11555 -0.010362 -0.20688 0.093624 -0.025319 -0.19668 -0.022362 -0.10389 0.028216 0.14489 0.16841 -0.14904 0.010214 0.056012 0.03684 -0.15424 -0.027078 -0.019768 0.080299 0.14622 -0.16188 -0.019262 -0.14137 0.14362 0.14051 -0.1562 -0.14259 -0.071674 -0.063322 0.12978 0.041051 0.38956 0.2033 -0.099973 -0.041488 -0.18115 -0.26661 -0.076866 -0.1683 -0.088688 -0.064539 -0.35333 -0.11449 -0.24144 0.36461 -0.0076815 0.01572 0.20344 -0.091698 0.10571 0.075866 -0.1368 -0.13595 0.36332 -0.068486 0.012584 -0.078393 -0.19443 0.031284 0.17515 -0.15863 0.072946 0.086419 0.11438 0.10331 0.0422 0.24042 0.11932 -0.10544 -0.19634 0.14735 -0.16479 0.24795 0.31563 0.073764 0.015494 -0.12739 0.17749 0.055076 -0.025673 0.018992 0.059681 0.023592 0.2026 -0.094886 -0.11614 -0.14995 -0.11791 -0.37884 -0.086568 0.026082 0.01164 0.082707 0.068993 0.0098967 -0.060545 -0.18532 -0.30626 0.041447 -0.064739 0.30084 -0.12097 0.13425 0.032856 0.044031 -0.15034 0.059607 -0.17753 0.12348 -0.028636 -0.0077206 -0.31313 0.14356 0.069927 0.039819 -0.22424 -0.056815 -0.029999 -0.039796 0.11665 0.13415 -0.024739 -0.020006 -0.022079 -0.082071 0.0069749 0.09162 0.19288 -0.15026 -0.086218 0.076572 0.13458 0.26024 -0.045601 -0.1656 -0.0076005 -0.073549 -0.087123 0.015451 0.11775 0.071411 -0.32252 0.11946 0.012714 -0.13181 0.26988 0.039867 0.27194 -0.17755 0.16011 -0.031751 -0.22637 0.11545 -0.19402 -0.13026 -0.20002 -0.035278 0.10006 -0.075977 -0.11615 -0.028057 0.10328 -0.2668 0.3018 0.14128 0.19153 0.037364 -0.048785 -0.19139 0.030021 0.33677 0.0095333 0.25557 0.32392 -0.015626 -0.029779 0.013854 0.091959 -0.044939 0.18416 0.06491 0.017896 0.19464 0.0019747 0.0096127 0.023377 -0.14204 0.18563 0.40383 0.060283 -0.087217 0.075274 -0.052568 0.080826 -0.088707 -0.046162 -0.40883 -0.06683 0.083514 -0.099983 0.17054 
thank -0.01778 -0.12825 -0.12077 -0.045044 -0.023402 -0.11842 -0.19519 0.39561 -0.090101 0.045716 0.024963 0.31401 0.25364 0.32333 0.02511 -0.085844 -0.14829 0.20696 0.089749 -0.40338 -0.19188 -0.04538 0.077233 -0.18462 0.10491 -0.096468 0.080337 -0.35963 -0.045603 0.36037 -0.3845 -0.061105 0.18239 0.199 0.078663 0.065009 0.1225 0.028093 -0.11006 0.31381 -0.0005475 0.13346 -0.038168 0.29655 0.024377 -0.24189 -0.13164 0.049342 -0.0017605 -0.12683 0.097499 0.099004 -0.049772 0.18483 0.19196 -0.0055753 0.14354 -0.084457 0.21875 0.042264 -0.048548 0.054963 0.23364 -0.17787 -0.15279 -0.017773 0.14493 -0.084239 -0.042366 -0.15099 0.062961 0.065091 -0.047619 0.093735 0.066073 -0.14364 0.2126 0.081707 -0.017286 0.053561 -0.013702 0.012919 0.17929 -0.11561 -0.066533 0.090839 0.058232 0.099514 -0.024384 0.071639 0.18714 -0.084376 0.031861 -0.16872 -0.12314 -0.053871 -0.10852 0.033901 -0.013993 -0.10434 -0.10252 0.25761 -0.023313 0.019839 0.11846 -0.077413 0.062211 0.18862 -0.13967 0.08527 0.073851 -0.035674 0.022585 0.0093877 0.080695 0.01986 -0.084448 -0.01495 -0.20352 -0.036398 -0.047123 0.084533 -0.0041944 -0.10621 -0.075708 -0.19123 -0.1859 -0.037518 0.076602 -0.035237 -0.0022526 -0.1927 0.015484 -0.10594 -0.0046748 0.15449 0.050482 -0.055953 -0.010054 -0.078583 0.032397 0.014053 0.01511 0.08291 -0.0091522 -0.13359 0.076731 0.16881 0.064523 -0.12184 -0.027966 0.012724 -0.031069 0.022929 -0.14652 -0.2093 0.041359 -0.017046 -0.11671 -0.092147 0.11272 -0.13437 0.045533 0.043212 0.011555 -0.024903 0.033165 0.10529 -0.054268 0.089556 -0.0030271 0.027371 0.047782 -0.095933 0.048702 -0.05943 0.012878 0.035324 0.12923 0.12142 0.018652 0.069615 0.12651 -0.087878 -0.12059 0.026994 -0.056237 -0.081074 0.04048 -0.017284 0.14546 0.081868 0.0040704 0.030084 0.00025509 -0.2277 -0.0096277 0.10419 0.080572 -0.055557 0.30493 0.14434 -0.025484 -0.14624 0.040644 0.13057 -0.067069 -0.047763 -0.0043591 -0.014271 -0.21158 -0.031901 -0.14624 0.053179 -0.0026578 -0.040299 -0.18129 0.17585 0.1876 -0.026545 -0.1723 -0.093596 -0.17333 0.038738 -0.061861 -0.06274 0.016159 -0.012412 0.013621 0.15164 -0.028571 0.11301 -0.10809 -0.013283 -0.16727 -0.1407 -0.21056 0.064404 -0.011477 0.12974 -0.17885 -0.097464 0.079473 -0.079366 -0.096466 -0.35514 -0.067715 -0.066324 0.23491 0.28442 -0.067015 0.009787 -0.24406 -0.065846 -0.1027 0.039898 -0.16251 -0.13175 -0.0094158 -0.033909 0.05801 0.079675 -0.024346 0.10775 0.074987 -0.32693 -0.24191 0.003053 -0.19551 0.087255 -0.21549 0.36003 0.29459 -0.14597 -0.23575 0.27489 0.13093 -0.23447 0.13216 -0.074312 0.028572 0.062724 -0.063585 -0.19094 0.076416 -0.13133 0.036873 0.29415 0.10494 0.043379 -0.16707 -0.084497 0.21804 -0.11021 -0.062668 -0.11258 0.089354 0.0086832 -0.21563 0.064643 
this 0.016285 -0.0752 -0.057107 -0.012988 0.054567 -0.16339 -0.13565 0.11897 -0.020744 0.23962 -0.041754 0.073383 0.0066789 0.11344 0.037611 -0.15683 -0.12034 -0.036734 0.077092 -0.15379 -0.027401 -0.073057 -0.056361 -0.25605 -0.034519 0.10555 0.20696 -0.29031 -0.12807 0.44452 -0.45791 0.067096 -0.012956 0.2522 0.057511 0.0087125 0.030902 0.086958 -0.12095 0.19774 -0.1426 0.15389 0.14007 0.21957 -0.089865 -0.39379 -0.051015 -0.06824 0.15321 -0.23941 0.013107 0.37424 -0.042346 0.013874 0.11018 -0.16343 0.28454 -0.050649 0.16045 -0.035365 -0.010994 0.083872 0.06655 0.0413 -0.022165 -0.14596 0.21877 0.26613 0.12361 -0.037388 0.14999 0.077878 -0.061896 0.20172 0.021673 0.19959 0.19385 0.082471 0.22181 0.08091 0.24933 -0.033696 0.14465 -0.09137 0.13016 0.030782 -0.0075915 0.38607 -0.016068 -0.044304 -0.11693 -0.069221 -0.056455 0.076128 0.0024878 0.024958 -0.13849 -0.016645 -0.17913 -0.062318 0.02748 0.12735 -0.0015695 -0.081883 -0.16842 -0.16469 -0.086356 0.10533 0.12893 0.12396 0.061431 -0.10376 0.032178 -0.10112 -0.0023071 -0.098644 -0.00094105 0.026682 -0.0054288 -0.0041147 -0.081729 -0.099634 -0.00020162 0.04831 -0.017068 -0.14187 -0.13631 -0.18412 -0.12471 -0.014255 0.25126 -0.057243 -0.052547 -0.17636 0.0058012 -0.0314 0.09966 -0.29495 0.10488 0.028143 0.11796 -0.081462 -0.15236 0.3241 0.050068 -0.11047 -0.063698 0.073114 0.25361 -0.060442 -0.18537 -0.052662 0.20632 0.066569 -0.011364 -0.16488 -0.0031156 -0.047752 -0.080462 -0.088238 0.26983 -0.11478 -0.21864 0.13774 0.22261 0.030287 -0.0074051 -0.040859 -0.16619 0.33977 -0.17163 -0.064235 0.1409 0.20098 0.060092 -0.0064981 0.091554 0.1402 0.064569 0.045905 -0.095853 0.066868 0.11506 0.11049 -0.13248 0.11649 0.014165 0.050895 0.0016736 -0.14543 0.15675 -0.065814 0.05321 -0.037854 -0.11482 -0.18081 -0.034979 -0.081938 -0.13413 -0.13836 0.13583 0.060738 0.055547 -0.14196 0.11626 0.038377 0.14311 0.1373 -0.068673 -0.024064 0.033901 0.0020439 0.033572 0.1613 -0.056319 0.0020711 -0.12852 0.2097 0.14768 -0.1598 -0.14115 -0.10393 -0.092768 -0.18281 0.047307 0.014685 0.17137 0.039025 0.13203 0.055684 0.1284 0.18594 0.056174 0.032595 -0.1047 -0.022503 -0.16825 0.1343 -0.091537 0.12173 -0.011959 0.02245 0.17156 0.086667 0.02567 -0.35876 -0.048236 0.071357 0.30721 0.16903 -0.32596 0.024889 -0.084957 -0.19358 -0.13063 0.1591 0.02306 0.08058 0.17942 -0.061388 -0.14124 0.084144 0.019588 0.019175 0.13191 -0.084003 0.0097797 -0.26322 -0.20378 0.086144 -0.082925 0.29768 0.088169 -0.16351 0.080885 0.023473 -0.069642 -0.015433 0.22263 -0.092704 0.2444 0.030275 -0.078604 -0.17814 0.067185 -0.083842 0.17495 0.41429 0.02483 0.068903 -0.098891 -0.050786 0.25846 -0.0043344 0.097549 -0.074847 0.15984 -0.027321 -0.21398 -0.013554 
week 0.0094728 -0.022845 -0.2181 0.05855 -0.018722 -0.0082192 -0.1178 0.061566 -0.13366 0.10566 -0.071993 0.0042458 -0.011097 0.12367 -0.084901 -0.13808 -0.051334 -0.18183 -0.072309 -0.14519 -0.077388 0.10719 -0.1799 -0.18384 -0.19366 0.13825 0.12761 -0.0081114 -0.067618 0.1778 -0.2515 0.061716 0.12748 0.2823 0.10912 0.095671 -0.004097 0.27627 0.038791 0.13699 0.010028 0.17319 0.35349 0.19348 -0.044186 -0.49729 0.12653 -0.20353 0.13209 -0.30821 0.018752 0.54626 -0.057444 0.24395 -0.10903 -0.24331 0.13016 0.15849 0.16234 -0.036624 0.048718 0.21876 0.086339 0.10101 0.1071 -0.20624 0.12968 0.44461 0.14952 -0.16507 0.28414 0.31525 -0.21174 0.36306 -0.0087647 0.40125 0.30075 0.13151 0.056413 0.042659 0.1839 -0.045323 0.13749 -0.3062 -0.051865 -0.069825 -0.11612 0.18962 -0.10675 -0.12708 -0.048699 -0.10029 -0.00090527 0.16481 0.1459 -0.026113 -0.24789 0.0099321 -0.17157 -0.10591 0.076477 0.015358 -0.095289 -0.25368 -0.17625 -0.17367 -0.044243 -0.009587 0.28657 0.27047 0.37332 -0.0045842 0.087557 -0.097137 0.064093 -0.15499 -0.013468 0.2187 0.14889 -0.11402 -0.17415 -0.29926 0.27808 0.091787 -0.20166 -0.11275 -0.11291 -0.23046 -0.15644 -0.1727 0.52674 -0.17806 -0.14845 -0.28064 -0.088817 -0.045054 0.097604 -0.58837 0.10401 0.15514 0.2055 -0.091557 -0.21088 0.4703 0.10292 -0.18305 -0.13526 0.15638 -0.012685 -0.17446 -0.2094 -0.042294 0.09936 0.1537 0.12461 -0.083215 -0.076082 -0.069885 0.056485 -0.17659 0.40347 -0.15511 -0.35981 0.25737 0.27265 0.1451 0.022359 -0.10048 -0.12657 0.19759 -0.093654 -0.048289 0.14951 0.17849 0.15762 -0.023843 0.063968 -0.0084252 0.079935 0.012312 -0.023201 -0.092518 0.0052287 0.2909 -0.26206 0.099684 -0.032841 0.066208 0.056653 -0.19989 0.51456 -0.10983 0.057299 -0.099872 -0.24875 -0.31436 -0.12102 0.1217 -0.22437 -0.22046 0.40777 -0.011419 0.049694 -0.027901 0.24289 0.070311 0.15609 0.18481 0.061757 0.012899 0.21269 -0.011603 0.03485 0.18683 -0.11879 0.15097 -0.19793 0.2835 0.25479 -0.22074 -0.12953 -0.1462 0.0070189 -0.16659 0.0041358 -0.091123 0.13904 0.02088 0.22784 0.11513 0.31416 0.19545 0.12353 0.039495 -0.066831 -0.00054239 -0.048755 0.17532 -0.070065 0.089011 0.075072 -0.0052995 0.14679 0.073059 0.14961 -0.39433 -0.12773 0.087667 0.36236 0.22472 -0.18822 -0.025517 -0.26883 -0.28388 0.0014669 0.20943 0.082839 -0.025406 0.20224 0.084882 0.049508 -0.1492 0.040007 0.0301 0.14783 -0.096559 -0.00046585 -0.29961 -0.2811 -0.023493 -0.094916 0.2711 -0.072883 -0.13279 -0.0054003 -0.10098 -0.29071 -0.041825 0.33109 -0.087092 0.28293 -0.032447 0.037593 -0.12638 -0.012173 -0.060663 0.15043 0.27067 0.031588 0.12468 -0.030332 -0.014108 0.21887 -0.0065271 0.14485 -0.087861 0.12059 -0.078831 -0.03305 0.018292 
city -0.065111 -0.024115 -0.14994 0.049881 0.030267 0.04274 -0.13974 0.19308 -0.096593 0.18945 -0.029032 0.0061241 0.011189 0.17869 -0.18926 -0.028376 -0.019344 -0.22224 -0.038158 -0.11708 -0.0044457 0.144 -0.28118 -0.22216 -0.14189 0.051033 0.19882 0.067743 -0.061599 -0.0031064 0.013871 0.059683 0.059549 0.336 0.019734 -0.040328 -0.013869 0.17688 0.083378 -0.029304 0.1025 0.24976 0.50906 0.090659 0.017765 -0.26062 0.17734 -0.17818 0.29485 -0.22735 -0.031186 0.44282 0.0046825 0.32388 -0.25951 -0.30717 0.02066 0.13646 0.18574 -0.018652 0.092659 0.16033 -0.028322 0.052784 0.057483 -0.078134 0.12303 0.40639 0.062519 -0.11847 0.30244 0.43957 -0.26921 0.30775 -0.075121 0.33991 0.32195 0.28336 -0.033609 -0.016314 0.19381 0.17028 0.2493 -0.36714 0.09073 -0.086666 -0.1712 0.23559 -0.0062788 -0.20924 -0.10364 -0.13214 -0.095956 0.25087 0.17738 -0.061945 -0.51002 0.10278 -0.038585 -0.17158 0.26409 0.09202 -0.080339 -0.19009 -0.33195 -0.030488 -0.13414 -0.23548 0.32211 0.35721 0.43058 0.054778 0.11911 -0.08339 0.033231 -0.20037 -0.18496 0.44964 0.41303 -0.20156 -0.2465 -0.28882 0.42141 0.22792 -0.37933 -0.28968 -0.20129 -0.26006 -0.072069 -0.30199 0.60469 -0.15285 -0.23488 -0.33169 -0.27215 -0.025648 0.17707 -0.79755 0.068492 0.063953 0.040558 0.0013384 -0.21661 0.67997 -0.0072646 -0.27277 -0.061026 0.088084 -0.17333 -0.1424 -0.34291 0.028597 0.10081 0.13007 0.079804 -0.21924 -0.049828 -0.041286 -0.027652 -0.22245 0.59992 -0.16357 -0.2523 0.38567 0.39353 0.15454 -0.013185 -0.16221 -0.083006 0.097042 -0.11667 0.046178 0.085601 0.21916 0.28875 -0.1229 -0.015195 0.023488 0.17882 -0.060834 -0.042096 -0.087013 0.089953 0.3163 -0.43465 0.16605 -0.10458 0.14354 0.029278 -0.14217 0.61582 -0.075549 0.08942 0.04559 -0.17645 -0.29979 -0.17982 0.20142 -0.1619 -0.30253 0.4367 -0.1009 0.10277 -0.061283 0.26884 0.096067 0.088967 0.159 0.14411 -0.089963 -0.020226 -0.20588 -0.057346 0.046395 -0.15056 0.34577 -0.27583 0.28093 0.36548 -0.11602 -0.11735 -0.24724 -0.030166 -0.11103 0.047504 -0.15285 0.35032 -0.12872 0.20698 0.20407 0.28081 0.47455 0.049217 0.0051088 -0.070263 -0.027833 -0.094876 0.11696 -0.0017469 0.13182 0.05022 -0.060609 0.10838 0.0053397 0.21209 -0.39205 -0.062872 0.21848 0.41746 0.19855 -0.014488 0.13864 -0.20306 -0.26375 -0.01559 0.17272 0.092651 0.0028064 0.065595 0.075486 0.071909 -0.20733 -0.031353 0.087423 0.19215 0.092469 0.068883 -0.39431 -0.16153 0.028414 -0.1355 0.33054 0.02735 -0.20116 -0.082503 -0.079123 -0.28105 -0.028944 0.27647 -0.058478 0.21077 -0.1418 0.10046 -0.049589 -0.093464 -0.1667 0.11025 0.27901 0.056157 0.19101 0.017831 0.02205 0.24513 0.0061387 0.045592 -0.09586 0.093958 0.085003 -0.096967 0.1442 
would 0.048876 0.079016 -0.013295 0.11719 0.12486 0.10271 -0.18672 0.1944 0.0097019 0.28311 -0.099905 0.14402 0.051362 0.1017 0.026835 -0.012837 -0.085137 -0.0091483 -0.00061711 0.096348 0.0056293 -0.031366 -0.064197 -0.074279 -0.0013493 0.027351 -0.009233 0.01537 -0.11447 -0.10436 0.079349 0.13369 -0.15456 0.14967 0.095447 -0.14078 0.0066591 0.15094 0.028575 0.15288 -0.032935 0.15073 0.04458 0.15812 -0.015699 0.042767 -0.14638 -0.024346 0.13607 -0.077902 0.028343 0.28549 0.01601 0.11027 -0.012105 -0.072783 -0.14708 0.048631 0.14685 -0.015645 -0.071412 0.12028 -0.13267 -0.11415 -0.0099765 -0.010975 0.053532 0.10736 -0.091769 -0.12698 0.15166 0.20205 -0.20978 0.22858 -0.18671 0.10477 0.13928 0.021018 0.029351 0.028392 0.25594 0.13362 0.11239 -0.16337 0.081245 0.12879 -0.029249 0.14432 -0.047878 -0.030062 -0.062838 -0.076211 -0.15965 0.018888 -0.051358 0.035147 -0.14551 0.046785 -0.11416 -0.1751 0.23219 -0.10264 -0.034525 0.080661 -0.045423 -0.13608 0.0086842 -0.19883 0.072188 -0.12662 0.04877 -0.084136 -0.025453 0.061207 -0.015949 -0.044242 -0.087174 0.12059 0.097423 -0.0061089 -0.0070193 -0.039644 0.12677 0.048971 -0.047696 -0.2386 -0.093854 -0.1821 0.17634 -0.20285 -0.044575 0.0003408 -0.074306 -0.099786 -0.074869 -0.086561 0.0018648 -0.23219 -0.039311 0.048479 -0.21019 -0.098215 0.030378 0.35717 -0.10368 -0.06862 0.13851 0.0067875 -0.03792 0.066357 -0.085457 0.065377 0.10292 -0.00041868 0.056554 -0.10709 0.00079735 0.12715 0.079119 -0.13856 0.20288 0.0083673 -0.070606 0.19112 0.16045 0.022867 -0.15816 0.035675 -0.056592 0.034119 -0.13526 0.109 -0.059417 0.18851 0.13605 -0.051073 -0.13925 0.1975 -0.00035731 0.028103 0.016358 -0.094651 0.10291 0.090558 -0.16315 -0.048748 -0.13214 0.1288 -0.042772 -0.18041 0.082145 -0.035462 0.1358 0.10248 -0.18319 -0.13093 -0.21178 -0.051437 0.10775 -0.027812 0.25135 -0.035426 -0.029263 -0.14598 0.14035 0.02771 -0.097242 -0.02968 0.15528 0.011641 -0.038579 -0.17714 0.049313 0.05297 -0.26998 0.1166 -0.14341 0.10236 0.27183 -0.019529 0.022826 -0.14813 -0.16499 0.078468 0.088874 -0.0018125 0.33008 0.16696 0.043283 0.22461 0.091667 0.42657 -0.072422 0.024794 -0.074196 0.024656 -0.20366 0.061851 0.041072 0.11974 -0.21323 0.16094 0.079724 0.10716 0.081906 -0.39578 0.18082 0.098039 0.18508 0.23044 -0.23142 0.071507 -0.29762 -0.13592 -0.10232 -0.059592 0.12611 -0.056339 0.13874 0.0075958 0.01085 0.056062 0.18947 0.024297 0.29921 -0.21405 -0.16041 -0.21464 -0.12306 0.26508 -0.0738 0.41939 0.27187 -0.043206 -0.22062 0.15869 -0.090275 -0.027117 0.10626 -0.089246 0.21611 -0.091188 -0.08995 0.0053092 0.0063877 -0.091317 0.14022 0.44303 0.053589 0.043329 0.034935 -0.21226 0.21735 -0.026812 -0.073843 -0.37518 0.051701 0.38775 -0.22343 0.18837 
set -0.14916 -0.15013 0.1542 -0.066962 -0.15339 -0.070872 -0.046623 0.10842 0.066159 0.098901 0.078621 0.26263 0.088347 0.11258 0.19428 -0.036836 -0.10182 -0.026681 0.17154 -0.085788 -0.058514 -0.11965 0.097281 -0.24291 0.038839 -0.061448 0.073715 -0.2959 -0.048808 0.085326 -0.094856 0.010459 -0.031672 0.18 -0.012786 -0.075522 0.086526 -0.042869 -0.16973 0.13145 -0.070451 0.15363 -0.18372 0.27662 0.047412 -0.17408 -0.08699 0.15267 0.0078611 -0.0096893 0.029321 -0.067681 -0.1233 -0.18152 0.21023 -0.11692 0.21421 -0.13863 0.1088 -0.071926 0.10803 0.15229 0.12697 -0.015333 -0.35786 -0.0092615 0.351 0.070178 0.045 0.02762 0.10527 -0.013785 0.057974 0.14604 -0.10393 0.068648 0.1955 0.0096569 -0.01509 0.10174 0.090711 -0.049884 0.15395 -0.12092 0.10083 0.092938 0.045266 0.25932 0.13133 0.047324 -0.11222 0.043648 0.11064 0.064952 -0.061692 0.054984 -0.018096 0.096947 -0.036412 0.008681 0.039261 -0.022333 0.02532 -0.099763 -0.21811 -0.17453 0.019962 0.18053 0.038516 0.047716 0.042883 -0.023734 0.085682 0.17311 0.041623 0.05758 0.03528 -0.23585 0.050051 -0.058434 0.0094362 0.087197 -0.13243 0.14585 -0.10335 -0.14837 -0.1157 -0.11613 0.1715 0.0029767 -0.10324 -0.10903 0.099999 -0.10511 -0.035624 -0.16487 -0.06597 -0.15921 -0.098267 0.04399 -0.18538 -0.028553 0.076036 0.33511 -0.02698 -0.056251 0.07753 -0.0018115 0.12014 0.052016 -0.24528 -0.020607 0.040853 -0.023112 -0.04112 0.031378 -0.050255 0.14982 0.021449 0.089707 0.20646 -0.016591 -0.070528 0.13443 -0.0087304 0.18561 -0.068119 0.12378 -0.19331 0.15819 -0.10871 0.17731 0.16252 0.17132 0.15018 -0.050175 0.18663 0.22833 0.063813 0.10403 -0.22182 -0.048256 0.27791 -0.09261 -0.22556 0.087083 -0.15184 -0.10534 -0.09809 0.0061608 -0.06551 -0.041235 0.17132 0.15964 -0.028473 -0.26297 -0.069998 0.11209 0.075588 0.12275 0.27729 0.15392 -0.019558 -0.036652 0.10132 0.17895 0.016441 -0.095777 0.043642 -0.073535 -0.23311 0.084083 -0.020695 0.010994 -0.10459 -0.15768 -0.29669 -0.012088 0.09974 0.085567 -0.036353 0.007872 -0.18708 -0.059506 0.11077 0.062347 0.13611 0.12971 -0.0030997 0.19558 0.10456 0.40675 -0.11573 -0.1485 -0.0021953 -0.20098 -0.4023 -0.010361 0.16321 0.057003 -0.36026 0.19565 0.17993 -0.01863 -0.16904 -0.15928 0.14047 -0.092174 0.15589 -0.044312 -0.23683 0.15496 -0.18137 0.011005 -0.20131 -0.10867 -0.066684 -0.21199 -0.087475 -0.081046 -0.035646 -0.0111 0.17442 0.10992 0.16533 -0.30533 -0.15491 -0.11185 0.073341 0.22954 -0.074486 0.3609 0.30619 0.013293 0.041064 0.21902 0.12883 -0.082719 -0.012907 0.062946 -0.072516 0.12175 -0.057737 -0.1674 0.049731 -0.058781 0.10588 0.583 0.067277 -0.025729 -0.11175 -0.098064 0.068148 -0.064842 -0.039385 -0.30498 0.074253 0.18026 -0.18372 0.017315 
forecast -0.075911 0.068263 -0.2628 0.02183 0.15207 0.090241 -0.11013 0.030913 -0.13557 0.091902 -0.063664 -0.10344 0.15589 0.1506 -0.13925 -0.042433 -0.0018487 -0.15491 -0.072911 -0.12391 -0.016968 0.072558 -0.16826 -0.33684 -0.21939 0.1914 0.1971 0.014404 -0.11011 0.27322 -0.14326 0.1272 0.05884 0.32757 0.12717 0.020813 -0.0050269 0.27814 0.036673 -0.12541 -0.017964 0.10728 0.45882 0.054776 -0.059736 -0.35086 0.21442 -0.34733 0.26259 -0.26969 -0.0028686 0.45863 0.054338 0.17649 -0.17545 -0.18349 0.021969 0.075354 0.099573 -0.015341 0.070069 0.10076 -0.17317 0.1175 0.20436 -0.072287 0.031884 0.41586 0.14779 -0.028303 0.28579 0.29897 -0.16816 0.24665 0.07586 0.46888 0.13119 0.18948 0.067666 -0.063967 0.1937 0.011571 0.10531 -0.28004 0.081132 -0.10426 -0.1646 0.18449 0.012306 -0.21016 -0.10424 -0.13485 -0.11287 0.3246 0.26845 0.12222 -0.4276 -0.011581 -0.15339 -0.10931 0.32936 0.029926 -0.14557 -0.18205 -0.30967 0.068704 -0.18392 -0.24205 0.38266 0.35476 0.48172 0.074885 0.031671 -0.10536 0.070592 -0.223 -0.25117 0.37674 0.31047 -0.15308 -0.14209 -0.30875 0.426 0.17633 -0.28783 -0.21462 -0.15196 -0.22279 -0.26985 -0.217 0.59815 -0.096619 -0.13066 -0.2839 -0.2931 -0.021034 0.1109 -0.72605 0.11479 0.10035 0.035079 -0.08198 -0.22164 0.57127 0.14612 -0.18112 -0.054891 0.052685 -0.081937 -0.1221 -0.31319 0.04444 0.14686 0.1472 0.11568 -0.17727 -0.031995 -0.091451 -0.13945 -0.15028 0.52347 -0.070407 -0.27679 0.27171 0.27064 0.091872 0.046206 -0.22976 -0.054215 0.081497 -0.13755 0.016522 0.10386 0.21559 0.21678 -0.14973 0.041097 -0.028886 0.15245 0.012821 0.00079787 -0.025573 0.0023234 0.29273 -0.41869 0.16887 -0.046067 0.22012 0.10895 -0.1736 0.63559 -0.080651 0.080979 -0.0066723 -0.1864 -0.29233 -0.064602 0.082592 -0.19323 -0.32918 0.38117 -0.20081 0.11986 -0.033795 0.29496 0.11913 0.248 0.23671 0.21337 -0.031589 0.014724 -0.087217 -0.028786 0.13685 -0.061154 0.30287 -0.12252 0.23113 0.36028 -0.12397 -0.13046 -0.19791 0.045599 -0.029378 -0.032495 -0.15697 0.29941 0.004378 0.16095 0.27864 0.2414 0.37033 0.044094 -0.0095696 -0.10891 -0.098114 -0.013715 0.19988 -0.032235 0.086162 0.097934 0.070747 0.025915 0.0066945 0.20483 -0.38394 -0.030012 0.16674 0.33009 0.23074 -0.1087 0.092006 -0.185 -0.20518 -0.023129 0.12053 0.11723 0.12189 0.15918 0.11963 -0.015527 -0.21561 -0.095708 0.14863 0.26887 0.11568 0.087181 -0.28887 -0.029449 -0.017074 -0.18945 0.28436 -0.04344 -0.16875 -0.11833 -0.10695 -0.32043 0.021446 0.25987 -0.1094 0.26316 -0.091926 0.060638 0.022811 -0.057288 -0.0010064 0.15763 0.23104 0.064111 0.17346 0.017057 0.061758 0.36989 0.033912 0.06096 -0.10712 0.12971 0.10183 -0.040539 0.052346 
